{"learner":{"attributes":{"scikit_learn":"{\"_estimator_type\": \"regressor\"}"},"feature_names":[],"feature_types":[],"gradient_booster":{"model":{"gbtree_model_param":{"num_parallel_tree":"1","num_trees":"388"},"iteration_indptr":[0,4,8,12,16,20,24,28,32,36,40,44,48,52,56,60,64,68,72,76,80,84,88,92,96,100,104,108,112,116,120,124,128,132,136,140,144,148,152,156,160,164,168,172,176,180,184,188,192,196,200,204,208,212,216,220,224,228,232,236,240,244,248,252,256,260,264,268,272,276,280,284,288,292,296,300,304,308,312,316,320,324,328,332,336,340,344,348,352,356,360,364,368,372,376,380,384,388],"tree_info":[0,1,2,3,0,1,2,3,0,1,2,3,0,1,2,3,0,1,2,3,0,1,2,3,0,1,2,3,0,1,2,3,0,1,2,3,0,1,2,3,0,1,2,3,0,1,2,3,0,1,2,3,0,1,2,3,0,1,2,3,0,1,2,3,0,1,2,3,0,1,2,3,0,1,2,3,0,1,2,3,0,1,2,3,0,1,2,3,0,1,2,3,0,1,2,3,0,1,2,3,0,1,2,3,0,1,2,3,0,1,2,3,0,1,2,3,0,1,2,3,0,1,2,3,0,1,2,3,0,1,2,3,0,1,2,3,0,1,2,3,0,1,2,3,0,1,2,3,0,1,2,3,0,1,2,3,0,1,2,3,0,1,2,3,0,1,2,3,0,1,2,3,0,1,2,3,0,1,2,3,0,1,2,3,0,1,2,3,0,1,2,3,0,1,2,3,0,1,2,3,0,1,2,3,0,1,2,3,0,1,2,3,0,1,2,3,0,1,2,3,0,1,2,3,0,1,2,3,0,1,2,3,0,1,2,3,0,1,2,3,0,1,2,3,0,1,2,3,0,1,2,3,0,1,2,3,0,1,2,3,0,1,2,3,0,1,2,3,0,1,2,3,0,1,2,3,0,1,2,3,0,1,2,3,0,1,2,3,0,1,2,3,0,1,2,3,0,1,2,3,0,1,2,3,0,1,2,3,0,1,2,3,0,1,2,3,0,1,2,3,0,1,2,3,0,1,2,3,0,1,2,3,0,1,2,3,0,1,2,3,0,1,2,3,0,1,2,3,0,1,2,3,0,1,2,3,0,1,2,3,0,1,2,3,0,1,2,3,0,1,2,3,0,1,2,3,0,1,2,3,0,1,2,3,0,1,2,3],"trees":[{"base_weights":[4.6871788E1,-5.0407476E3,2.8233799E4,-1.3544661E4,-1.8418671E3,2.1568982E4,3.0227438E4,-1.7740625E3,-8.703918E2,-4.3193515E2,7.982423E1,1.1019053E3,2.0229241E3,2.5157876E3,2.9550852E3],"categories":[],"categories_nodes":[],"categories_segments":[],"categories_sizes":[],"default_left":[0,0,0,0,0,0,0,0,0,0,0,0,0,0,0],"id":0,"left_children":[1,3,5,7,9,11,13,-1,-1,-1,-1,-1,-1,-1,-1],"loss_changes":[7.277585E11,1.1692064E11,9.698214E9,2.8057518E10,2.5707403E10,1.6275374E9,2.606596E9,0E0,0E0,0E0,0E0,0E0,0E0,0E0,0E0],"parents":[2147483647,0,0,1,1,2,2,3,3,4,4,5,5,6,6],"right_children":[2,4,6,8,10,12,14,-1,-1,-1,-1,-1,-1,-1,-1],"split_conditions":[7.7498E4,6.042999E4,9.277E4,5.265E4,6.5846E4,8.184671E4,9.85231E4,-1.7740625E3,-8.703918E2,-4.3193515E2,7.982423E1,1.1019053E3,2.0229241E3,2.5157876E3,2.9550852E3],"split_indices":[3,6,13,11,6,3,6,0,0,0,0,0,0,0,0],"split_type":[0,0,0,0,0,0,0,0,0,0,0,0,0,0,0],"sum_hessian":[5.073E3,4.298E3,7.75E2,1.174E3,3.124E3,1.81E2,5.94E2,4.36E2,7.38E2,1.489E3,1.635E3,2.1E1,1.6E2,3.59E2,2.35E2],"tree_param":{"num_deleted":"0","num_feature":"252","num_nodes":"15","size_leaf_vector":"1"}},{"base_weights":[1.365299E2,-5.030528E3,2.8234014E4,-1.4286159E4,-2.0257065E3,2.1669797E4,3.0259555E4,-1.7721019E3,-9.00398E2,-4.5357712E2,7.678675E1,1.1264257E3,2.0239794E3,2.5578005E3,3.0227197E3],"categories":[],"categories_nodes":[],"categories_segments":[],"categories_sizes":[],"default_left":[0,0,0,0,0,0,0,0,0,0,0,0,0,0,0],"id":1,"left_children":[1,3,5,7,9,11,13,-1,-1,-1,-1,-1,-1,-1,-1],"loss_changes":[7.4766293E11,1.2095126E11,1.0020782E10,2.4771854E10,2.90611E10,1.5334605E9,2.5600983E9,0E0,0E0,0E0,0E0,0E0,0E0,0E0,0E0],"parents":[2147483647,0,0,1,1,2,2,3,3,4,4,5,5,6,6],"right_children":[2,4,6,8,10,12,14,-1,-1,-1,-1,-1,-1,-1,-1],"split_conditions":[7.742668E4,5.967442E4,9.327016E4,5.275328E4,6.578533E4,8.176656E4,9.9424E4,-1.7721019E3,-9.00398E2,-4.5357712E2,7.678675E1,1.1264257E3,2.0239794E3,2.5578005E3,3.0227197E3],"split_indices":[2,6,34,12,6,2,6,0,0,0,0,0,0,0,0],"split_type":[0,0,0,0,0,0,0,0,0,0,0,0,0,0,0],"sum_hessian":[5.148E3,4.349E3,7.99E2,1.065E3,3.284E3,1.91E2,6.08E2,4.54E2,6.11E2,1.593E3,1.691E3,2.1E1,1.7E2,4.32E2,1.76E2],"tree_param":{"num_deleted":"0","num_feature":"252","num_nodes":"15","size_leaf_vector":"1"}},{"base_weights":[-2.3416615E2,-5.128726E3,2.8176084E4,-1.5055118E4,-2.2366455E3,2.2124053E4,3.0369305E4,-2.0677166E3,-1.0651301E3,-4.813643E2,6.639787E1,1.131497E3,2.0527937E3,2.5716465E3,2.9976414E3],"categories":[],"categories_nodes":[],"categories_segments":[],"categories_sizes":[],"default_left":[0,0,0,0,0,0,0,0,0,0,0,0,0,0,0],"id":2,"left_children":[1,3,5,7,9,11,13,-1,-1,-1,-1,-1,-1,-1,-1],"loss_changes":[7.09589E11,1.2493223E11,9.323807E9,2.4566186E10,3.1819092E10,1.4650491E9,1.7988977E9,0E0,0E0,0E0,0E0,0E0,0E0,0E0,0E0],"parents":[2147483647,0,0,1,1,2,2,3,3,4,4,5,5,6,6],"right_children":[2,4,6,8,10,12,14,-1,-1,-1,-1,-1,-1,-1,-1],"split_conditions":[7.742668E4,5.917935E4,9.381747E4,4.904986E4,6.560312E4,8.111653E4,9.862441E4,-2.0677166E3,-1.0651301E3,-4.813643E2,6.639787E1,1.131497E3,2.0527937E3,2.5716465E3,2.9976414E3],"split_indices":[2,6,34,77,6,9,13,0,0,0,0,0,0,0,0],"split_type":[0,0,0,0,0,0,0,0,0,0,0,0,0,0,0],"sum_hessian":[5.101E3,4.352E3,7.49E2,9.81E2,3.371E3,2.02E2,5.47E2,2.69E2,7.12E2,1.635E3,1.736E3,1.9E1,1.83E2,3.8E2,1.67E2],"tree_param":{"num_deleted":"0","num_feature":"252","num_nodes":"15","size_leaf_vector":"1"}},{"base_weights":[6.083411E1,-5.089432E3,2.8411822E4,-1.473439E4,-2.1646255E3,2.2535285E4,3.0325373E4,-2.0460876E3,-1.0509362E3,-4.6899475E2,6.863038E1,1.1463501E3,2.0834705E3,2.5738596E3,3.012525E3],"categories":[],"categories_nodes":[],"categories_segments":[],"categories_sizes":[],"default_left":[0,0,0,0,0,0,0,0,0,0,0,0,0,0,0],"id":3,"left_children":[1,3,5,7,9,11,13,-1,-1,-1,-1,-1,-1,-1,-1],"loss_changes":[7.512286E11,1.22793075E11,8.2528174E9,2.425648E10,3.038447E10,1.3301187E9,2.0687749E9,0E0,0E0,0E0,0E0,0E0,0E0,0E0,0E0],"parents":[2147483647,0,0,1,1,2,2,3,3,4,4,5,5,6,6],"right_children":[2,4,6,8,10,12,14,-1,-1,-1,-1,-1,-1,-1,-1],"split_conditions":[7.719999E4,5.887387E4,9.381747E4,4.904986E4,6.57E4,8.166873E4,9.9205E4,-2.0460876E3,-1.0509362E3,-4.6899475E2,6.863038E1,1.1463501E3,2.0834705E3,2.5738596E3,3.012525E3],"split_indices":[1,13,34,77,6,13,13,0,0,0,0,0,0,0,0],"split_type":[0,0,0,0,0,0,0,0,0,0,0,0,0,0,0],"sum_hessian":[5.143E3,4.353E3,7.9E2,1.012E3,3.341E3,1.97E2,5.93E2,2.65E2,7.47E2,1.625E3,1.716E3,1.7E1,1.8E2,4.25E2,1.68E2],"tree_param":{"num_deleted":"0","num_feature":"252","num_nodes":"15","size_leaf_vector":"1"}},{"base_weights":[5.0278664E1,-4.676117E3,2.5995885E4,-1.4006009E4,-2.0831492E3,2.0021145E4,2.7742615E4,-1.9463342E3,-9.998192E2,-4.437603E2,6.500923E1,9.914268E2,1.8716393E3,2.3441152E3,2.785645E3],"categories":[],"categories_nodes":[],"categories_segments":[],"categories_sizes":[],"default_left":[0,0,0,0,0,0,0,0,0,0,0,0,0,0,0],"id":4,"left_children":[1,3,5,7,9,11,13,-1,-1,-1,-1,-1,-1,-1,-1],"loss_changes":[6.246571E11,1.0421493E11,7.67053E9,2.022772E10,2.747696E10,1.3574144E9,2.2906798E9,0E0,0E0,0E0,0E0,0E0,0E0,0E0,0E0],"parents":[2147483647,0,0,1,1,2,2,3,3,4,4,5,5,6,6],"right_children":[2,4,6,8,10,12,14,-1,-1,-1,-1,-1,-1,-1,-1],"split_conditions":[7.71E4,5.9048E4,9.4244E4,4.8444E4,6.5054E4,8.173E4,9.979999E4,-1.9463342E3,-9.998192E2,-4.437603E2,6.500923E1,9.914268E2,1.8716393E3,2.3441152E3,2.785645E3],"split_indices":[0,6,6,13,13,1,6,0,0,0,0,0,0,0,0],"split_type":[0,0,0,0,0,0,0,0,0,0,0,0,0,0,0],"sum_hessian":[5.092E3,4.308E3,7.84E2,9.36E2,3.372E3,1.8E2,6.04E2,2.44E2,6.92E2,1.661E3,1.711E3,1.9E1,1.61E2,4.34E2,1.7E2],"tree_param":{"num_deleted":"0","num_feature":"252","num_nodes":"15","size_leaf_vector":"1"}},{"base_weights":[-2.9194086E1,-4.721066E3,2.581058E4,-1.2455567E4,-1.6662473E3,2.0812639E4,2.8074215E4,-1.8862097E3,-8.933981E2,-3.6213342E2,1.0635978E2,1.0255112E3,1.931054E3,2.3783906E3,2.8259624E3],"categories":[],"categories_nodes":[],"categories_segments":[],"categories_sizes":[],"default_left":[0,0,0,0,0,0,0,0,0,0,0,0,0,0,0],"id":5,"left_children":[1,3,5,7,9,11,13,-1,-1,-1,-1,-1,-1,-1,-1],"loss_changes":[6.2083976E11,1.0238067E11,8.354726E9,2.5778536E10,2.130846E10,1.745748E9,1.9239731E9,0E0,0E0,0E0,0E0,0E0,0E0,0E0,0E0],"parents":[2147483647,0,0,1,1,2,2,3,3,4,4,5,5,6,6],"right_children":[2,4,6,8,10,12,14,-1,-1,-1,-1,-1,-1,-1,-1],"split_conditions":[7.924997E4,6.042999E4,9.48E4,4.904986E4,6.622246E4,8.224467E4,9.960598E4,-1.8862097E3,-8.933981E2,-3.6213342E2,1.0635978E2,1.0255112E3,1.931054E3,2.3783906E3,2.8259624E3],"split_indices":[6,6,6,77,13,5,13,0,0,0,0,0,0,0,0],"split_type":[0,0,0,0,0,0,0,0,0,0,0,0,0,0,0],"sum_hessian":[5.119E3,4.333E3,7.86E2,1.226E3,3.107E3,2.48E2,5.38E2,2.66E2,9.6E2,1.69E3,1.417E3,2.2E1,2.26E2,3.95E2,1.43E2],"tree_param":{"num_deleted":"0","num_feature":"252","num_nodes":"15","size_leaf_vector":"1"}},{"base_weights":[-3.806776E1,-4.592661E3,2.5592207E4,-1.2435675E4,-1.5201486E3,1.9198986E4,2.7323379E4,-1.6614509E3,-7.844829E2,-3.5059155E2,1.17414764E2,1.0602957E3,1.8088339E3,2.2707932E3,2.6656038E3],"categories":[],"categories_nodes":[],"categories_segments":[],"categories_sizes":[],"default_left":[0,0,0,0,0,0,0,0,0,0,0,0,0,0,0],"id":6,"left_children":[1,3,5,7,9,11,13,-1,-1,-1,-1,-1,-1,-1,-1],"loss_changes":[5.91018E11,1.0357705E11,7.9628534E9,2.7131298E10,2.1167516E10,1.102463E9,2.1409628E9,0E0,0E0,0E0,0E0,0E0,0E0,0E0,0E0],"parents":[2147483647,0,0,1,1,2,2,3,3,4,4,5,5,6,6],"right_children":[2,4,6,8,10,12,14,-1,-1,-1,-1,-1,-1,-1,-1],"split_conditions":[7.924997E4,6.054165E4,9.2E4,5.3E4,6.68E4,8.176656E4,9.830117E4,-1.6614509E3,-7.844829E2,-3.5059155E2,1.17414764E2,1.0602957E3,1.8088339E3,2.2707932E3,2.6656038E3],"split_indices":[6,6,11,13,6,2,6,0,0,0,0,0,0,0,0],"split_type":[0,0,0,0,0,0,0,0,0,0,0,0,0,0,0],"sum_hessian":[5.061E3,4.298E3,7.63E2,1.209E3,3.089E3,1.65E2,5.98E2,4.45E2,7.64E2,1.669E3,1.42E3,2.3E1,1.42E2,3.55E2,2.43E2],"tree_param":{"num_deleted":"0","num_feature":"252","num_nodes":"15","size_leaf_vector":"1"}},{"base_weights":[-1.4474698E2,-4.7384204E3,2.5924154E4,-1.2421092E4,-1.5893705E3,2.012983E4,2.7594156E4,-1.6196676E3,-7.7528656E2,-3.4339883E2,1.2049906E2,1.085344E3,1.859384E3,2.302086E3,2.6885967E3],"categories":[],"categories_nodes":[],"categories_segments":[],"categories_sizes":[],"default_left":[0,0,0,0,0,0,0,0,0,0,0,0,0,0,0],"id":7,"left_children":[1,3,5,7,9,11,13,-1,-1,-1,-1,-1,-1,-1,-1],"loss_changes":[6.090469E11,1.0459102E11,6.8516577E9,2.676292E10,2.0432749E10,7.757005E8,1.9415368E9,0E0,0E0,0E0,0E0,0E0,0E0,0E0,0E0],"parents":[2147483647,0,0,1,1,2,2,3,3,4,4,5,5,6,6],"right_children":[2,4,6,8,10,12,14,-1,-1,-1,-1,-1,-1,-1,-1],"split_conditions":[7.924997E4,6.054165E4,9.276801E4,5.3E4,6.694E4,7.864217E4,9.85231E4,-1.6196676E3,-7.7528656E2,-3.4339883E2,1.2049906E2,1.085344E3,1.859384E3,2.302086E3,2.6885967E3],"split_indices":[6,6,12,13,6,183,6,0,0,0,0,0,0,0,0],"split_type":[0,0,0,0,0,0,0,0,0,0,0,0,0,0,0],"sum_hessian":[5.084E3,4.323E3,7.61E2,1.256E3,3.067E3,1.73E2,5.88E2,4.92E2,7.64E2,1.733E3,1.334E3,1.6E1,1.57E2,3.55E2,2.33E2],"tree_param":{"num_deleted":"0","num_feature":"252","num_nodes":"15","size_leaf_vector":"1"}},{"base_weights":[-2.3237042E0,-4.212636E3,2.3366676E4,-1.2013342E4,-1.6491556E3,1.7163488E4,2.500643E4,-1.7310645E3,-8.5472516E2,-3.298913E2,1.1706426E2,9.2714545E2,1.6289623E3,2.1088337E3,2.5053813E3],"categories":[],"categories_nodes":[],"categories_segments":[],"categories_sizes":[],"default_left":[0,0,0,0,0,0,0,0,0,0,0,0,0,0,0],"id":8,"left_children":[1,3,5,7,9,11,13,-1,-1,-1,-1,-1,-1,-1,-1],"loss_changes":[5.084715E11,8.754687E10,7.6220334E9,1.9268305E10,2.0051417E10,1.0864927E9,1.9721421E9,0E0,0E0,0E0,0E0,0E0,0E0,0E0,0E0],"parents":[2147483647,0,0,1,1,2,2,3,3,4,4,5,5,6,6],"right_children":[2,4,6,8,10,12,14,-1,-1,-1,-1,-1,-1,-1,-1],"split_conditions":[7.924997E4,5.967442E4,9.195856E4,4.904986E4,6.651E4,8.111653E4,9.862441E4,-1.7310645E3,-8.5472516E2,-3.298913E2,1.1706426E2,9.2714545E2,1.6289623E3,2.1088337E3,2.5053813E3],"split_indices":[6,6,8,77,13,9,13,0,0,0,0,0,0,0,0],"split_type":[0,0,0,0,0,0,0,0,0,0,0,0,0,0,0],"sum_hessian":[5.166E3,4.378E3,7.88E2,1.082E3,3.296E3,1.67E2,6.21E2,2.65E2,8.17E2,1.947E3,1.349E3,2.5E1,1.42E2,4.39E2,1.82E2],"tree_param":{"num_deleted":"0","num_feature":"252","num_nodes":"15","size_leaf_vector":"1"}},{"base_weights":[3.883074E1,-4.2917524E3,2.3539742E4,-1.2585123E4,-1.9449288E3,1.9684785E4,2.5846775E4,-1.7500403E3,-9.118914E2,-4.1353156E2,5.8043262E1,1.2972186E3,1.8501906E3,2.204707E3,2.5787544E3],"categories":[],"categories_nodes":[],"categories_segments":[],"categories_sizes":[],"default_left":[0,0,0,0,0,0,0,0,0,0,0,0,0,0,0],"id":9,"left_children":[1,3,5,7,9,11,13,-1,-1,-1,-1,-1,-1,-1,-1],"loss_changes":[5.1536344E11,8.319995E10,6.5300726E9,1.5458025E10,2.3330111E10,1.3649838E9,1.00623974E9,0E0,0E0,0E0,0E0,0E0,0E0,0E0,0E0],"parents":[2147483647,0,0,1,1,2,2,3,3,4,4,5,5,6,6],"right_children":[2,4,6,8,10,12,14,-1,-1,-1,-1,-1,-1,-1,-1],"split_conditions":[7.719999E4,5.8516E4,9.577776E4,4.8444E4,6.473237E4,8.968365E4,1.00932E5,-1.7500403E3,-9.118914E2,-4.1353156E2,5.8043262E1,1.2972186E3,1.8501906E3,2.204707E3,2.5787544E3],"split_indices":[1,13,6,13,13,6,6,0,0,0,0,0,0,0,0],"split_type":[0,0,0,0,0,0,0,0,0,0,0,0,0,0,0],"sum_hessian":[5.062E3,4.275E3,7.87E2,9.42E2,3.333E3,2.98E2,4.89E2,2.34E2,7.08E2,1.635E3,1.698E3,5.4E1,2.44E2,3.66E2,1.23E2],"tree_param":{"num_deleted":"0","num_feature":"252","num_nodes":"15","size_leaf_vector":"1"}},{"base_weights":[-4.6641193E1,-4.1485503E3,2.3480172E4,-1.0290527E4,-9.6165454E2,1.794303E4,2.5074123E4,-1.4885509E3,-6.6621216E2,-2.3634981E2,1.6266513E2,9.604276E2,1.676776E3,2.115861E3,2.5009944E3],"categories":[],"categories_nodes":[],"categories_segments":[],"categories_sizes":[],"default_left":[0,0,0,0,0,0,0,0,0,0,0,0,0,0,0],"id":10,"left_children":[1,3,5,7,9,11,13,-1,-1,-1,-1,-1,-1,-1,-1],"loss_changes":[4.9332175E11,8.519444E10,6.2761533E9,2.6723533E10,1.3509331E10,8.893358E8,1.7131766E9,0E0,0E0,0E0,0E0,0E0,0E0,0E0,0E0],"parents":[2147483647,0,0,1,1,2,2,3,3,4,4,5,5,6,6],"right_children":[2,4,6,8,10,12,14,-1,-1,-1,-1,-1,-1,-1,-1],"split_conditions":[7.914894E4,6.105831E4,9.272E4,5.2555E4,6.774513E4,8.224467E4,9.9424E4,-1.4885509E3,-6.6621216E2,-2.3634981E2,1.6266513E2,9.604276E2,1.676776E3,2.115861E3,2.5009944E3],"split_indices":[5,13,10,10,6,5,6,0,0,0,0,0,0,0,0],"split_type":[0,0,0,0,0,0,0,0,0,0,0,0,0,0,0],"sum_hessian":[5.11E3,4.352E3,7.58E2,1.486E3,2.866E3,1.72E2,5.86E2,4.52E2,1.034E3,1.784E3,1.082E3,2E1,1.52E2,4.11E2,1.75E2],"tree_param":{"num_deleted":"0","num_feature":"252","num_nodes":"15","size_leaf_vector":"1"}},{"base_weights":[-2.2723953E1,-4.305542E3,2.3545057E4,-1.0649848E4,-1.201091E3,1.7017846E4,2.4925898E4,-1.4995172E3,-6.874379E2,-2.789804E2,1.2110579E2,1.0017378E3,1.6083639E3,2.1125825E3,2.520605E3],"categories":[],"categories_nodes":[],"categories_segments":[],"categories_sizes":[],"default_left":[0,0,0,0,0,0,0,0,0,0,0,0,0,0,0],"id":11,"left_children":[1,3,5,7,9,11,13,-1,-1,-1,-1,-1,-1,-1,-1],"loss_changes":[5.2243536E11,8.625344E10,6.7758E9,2.59719E10,1.4533052E10,6.5325875E8,2.0567818E9,0E0,0E0,0E0,0E0,0E0,0E0,0E0,0E0],"parents":[2147483647,0,0,1,1,2,2,3,3,4,4,5,5,6,6],"right_children":[2,4,6,8,10,12,14,-1,-1,-1,-1,-1,-1,-1,-1],"split_conditions":[7.924997E4,6.116E4,9.136178E4,5.24E4,6.675E4,8.222213E4,9.9205E4,-1.4995172E3,-6.874379E2,-2.789804E2,1.2110579E2,1.0017378E3,1.6083639E3,2.1125825E3,2.520605E3],"split_indices":[6,6,76,5,13,4,13,0,0,0,0,0,0,0,0],"split_type":[0,0,0,0,0,0,0,0,0,0,0,0,0,0,0],"sum_hessian":[5.174E3,4.379E3,7.95E2,1.438E3,2.941E3,1.41E2,6.54E2,4.62E2,9.76E2,1.677E3,1.264E3,2.3E1,1.18E2,4.85E2,1.69E2],"tree_param":{"num_deleted":"0","num_feature":"252","num_nodes":"15","size_leaf_vector":"1"}},{"base_weights":[-1.3497505E2,-3.9101016E3,2.1082383E4,-1.3366065E4,-2.0993364E3,1.4459899E4,2.2719164E4,-1.674855E3,-9.841082E2,-4.3795743E2,2.0032503E1,8.233132E2,1.450648E3,1.9073134E3,2.3067402E3],"categories":[],"categories_nodes":[],"categories_segments":[],"categories_sizes":[],"default_left":[0,0,0,0,0,0,0,0,0,0,0,0,0,0,0],"id":12,"left_children":[1,3,5,7,9,11,13,-1,-1,-1,-1,-1,-1,-1,-1],"loss_changes":[4.1570206E11,7.541447E10,8.1892475E9,8.73309E9,2.4198463E10,1.3574349E9,2.0947927E9,0E0,0E0,0E0,0E0,0E0,0E0,0E0,0E0],"parents":[2147483647,0,0,1,1,2,2,3,3,4,4,5,5,6,6],"right_children":[2,4,6,8,10,12,14,-1,-1,-1,-1,-1,-1,-1,-1],"split_conditions":[7.604139E4,5.691601E4,9.11784E4,4.71454E4,6.397148E4,8.111653E4,9.9424E4,-1.674855E3,-9.841082E2,-4.3795743E2,2.0032503E1,8.233132E2,1.450648E3,1.9073134E3,2.3067402E3],"split_indices":[70,13,71,13,13,9,5,0,0,0,0,0,0,0,0],"split_type":[0,0,0,0,0,0,0,0,0,0,0,0,0,0,0],"sum_hessian":[5.188E3,4.405E3,7.83E2,7.07E2,3.698E3,1.57E2,6.26E2,2.1E2,4.97E2,1.672E3,2.026E3,4.2E1,1.15E2,4.47E2,1.79E2],"tree_param":{"num_deleted":"0","num_feature":"252","num_nodes":"15","size_leaf_vector":"1"}},{"base_weights":[6.1017834E1,-3.9101292E3,2.144918E4,-1.3046791E4,-2.044816E3,1.662416E4,2.3074604E4,-1.6545629E3,-9.4509283E2,-4.3129178E2,1.9766737E1,8.4789996E2,1.534408E3,1.9415618E3,2.3039023E3],"categories":[],"categories_nodes":[],"categories_segments":[],"categories_sizes":[],"default_left":[0,0,0,0,0,0,0,0,0,0,0,0,0,0,0],"id":13,"left_children":[1,3,5,7,9,11,13,-1,-1,-1,-1,-1,-1,-1,-1],"loss_changes":[4.3604758E11,7.376894E10,5.9450327E9,9.707061E9,2.2783738E10,7.139041E8,1.615659E9,0E0,0E0,0E0,0E0,0E0,0E0,0E0,0E0],"parents":[2147483647,0,0,1,1,2,2,3,3,4,4,5,5,6,6],"right_children":[2,4,6,8,10,12,14,-1,-1,-1,-1,-1,-1,-1,-1],"split_conditions":[7.607073E4,5.775173E4,9.381747E4,4.775E4,6.391E4,8.176656E4,9.862441E4,-1.6545629E3,-9.4509283E2,-4.3129178E2,1.9766737E1,8.4789996E2,1.534408E3,1.9415618E3,2.3039023E3],"split_indices":[183,6,34,7,13,2,13,0,0,0,0,0,0,0,0],"split_type":[0,0,0,0,0,0,0,0,0,0,0,0,0,0,0],"sum_hessian":[5.132E3,4.329E3,8.03E2,7.33E2,3.596E3,2.05E2,5.98E2,2.23E2,5.1E2,1.61E3,1.986E3,1.7E1,1.88E2,4.14E2,1.84E2],"tree_param":{"num_deleted":"0","num_feature":"252","num_nodes":"15","size_leaf_vector":"1"}},{"base_weights":[3.3495922E1,-3.964208E3,2.1076582E4,-1.2096132E4,-1.8982069E3,1.4641833E4,2.261308E4,-1.6384843E3,-8.5336224E2,-3.8799545E2,4.4563713E1,8.397676E2,1.4586526E3,1.8548495E3,2.1960396E3],"categories":[],"categories_nodes":[],"categories_segments":[],"categories_sizes":[],"default_left":[0,0,0,0,0,0,0,0,0,0,0,0,0,0,0],"id":14,"left_children":[1,3,5,7,9,11,13,-1,-1,-1,-1,-1,-1,-1,-1],"loss_changes":[4.2994696E11,7.2135836E10,7.756448E9,1.3626171E10,2.017491E10,1.2951204E9,1.9173868E9,0E0,0E0,0E0,0E0,0E0,0E0,0E0,0E0],"parents":[2147483647,0,0,1,1,2,2,3,3,4,4,5,5,6,6],"right_children":[2,4,6,8,10,12,14,-1,-1,-1,-1,-1,-1,-1,-1],"split_conditions":[7.604139E4,5.812698E4,9.147678E4,4.900995E4,6.473237E4,8.238094E4,9.712211E4,-1.6384843E3,-8.5336224E2,-3.8799545E2,4.4563713E1,8.397676E2,1.4586526E3,1.8548495E3,2.1960396E3],"split_indices":[70,13,28,6,13,6,13,0,0,0,0,0,0,0,0],"split_type":[0,0,0,0,0,0,0,0,0,0,0,0,0,0,0],"sum_hessian":[5.109E3,4.294E3,8.15E2,8.69E2,3.425E3,1.59E2,6.56E2,2.47E2,6.22E2,1.692E3,1.733E3,4.1E1,1.18E2,3.53E2,3.03E2],"tree_param":{"num_deleted":"0","num_feature":"252","num_nodes":"15","size_leaf_vector":"1"}},{"base_weights":[-4.3716087E0,-3.916779E3,2.1034172E4,-1.3246812E4,-2.1585425E3,1.4718131E4,2.2659162E4,-1.697355E3,-9.647199E2,-4.4471655E2,1.28987255E1,8.689583E2,1.4611794E3,1.8722043E3,2.1910742E3],"categories":[],"categories_nodes":[],"categories_segments":[],"categories_sizes":[],"default_left":[0,0,0,0,0,0,0,0,0,0,0,0,0,0,0],"id":15,"left_children":[1,3,5,7,9,11,13,-1,-1,-1,-1,-1,-1,-1,-1],"loss_changes":[4.162384E11,6.992054E10,7.8253916E9,9.299935E9,2.3405519E10,1.2240814E9,1.516372E9,0E0,0E0,0E0,0E0,0E0,0E0,0E0,0E0],"parents":[2147483647,0,0,1,1,2,2,3,3,4,4,5,5,6,6],"right_children":[2,4,6,8,10,12,14,-1,-1,-1,-1,-1,-1,-1,-1],"split_conditions":[7.6088484E4,5.691601E4,9.136103E4,4.7082875E4,6.426824E4,7.866139E4,9.712211E4,-1.697355E3,-9.647199E2,-4.4471655E2,1.28987255E1,8.689583E2,1.4611794E3,1.8722043E3,2.1910742E3],"split_indices":[28,13,75,35,6,184,13,0,0,0,0,0,0,0,0],"split_type":[0,0,0,0,0,0,0,0,0,0,0,0,0,0,0],"sum_hessian":[5.055E3,4.263E3,7.92E2,6.75E2,3.588E3,1.64E2,6.28E2,1.97E2,4.78E2,1.609E3,1.979E3,4.3E1,1.21E2,3.44E2,2.84E2],"tree_param":{"num_deleted":"0","num_feature":"252","num_nodes":"15","size_leaf_vector":"1"}},{"base_weights":[-2.0199557E2,-3.7111848E3,1.9111203E4,-1.3461711E4,-2.2197158E3,1.2944509E4,2.074549E4,-1.5622642E3,-9.9379224E2,-4.5078745E2,-1.6083431E1,7.336447E2,1.3376892E3,1.7594763E3,2.1858877E3],"categories":[],"categories_nodes":[],"categories_segments":[],"categories_sizes":[],"default_left":[0,0,0,0,0,0,0,0,0,0,0,0,0,0,0],"id":16,"left_children":[1,3,5,7,9,11,13,-1,-1,-1,-1,-1,-1,-1,-1],"loss_changes":[3.4597916E11,6.2795112E10,7.6587336E9,5.202125E9,2.1692262E10,1.5085855E9,1.893974E9,0E0,0E0,0E0,0E0,0E0,0E0,0E0,0E0],"parents":[2147483647,0,0,1,1,2,2,3,3,4,4,5,5,6,6],"right_children":[2,4,6,8,10,12,14,-1,-1,-1,-1,-1,-1,-1,-1],"split_conditions":[7.474473E4,5.5735E4,9.147678E4,4.52414E4,6.372445E4,8.172747E4,1.00932E5,-1.5622642E3,-9.9379224E2,-4.5078745E2,-1.6083431E1,7.336447E2,1.3376892E3,1.7594763E3,2.1858877E3],"split_indices":[47,13,28,3,6,0,6,0,0,0,0,0,0,0,0],"split_type":[0,0,0,0,0,0,0,0,0,0,0,0,0,0,0],"sum_hessian":[5.103E3,4.319E3,7.84E2,5.72E2,3.747E3,1.66E2,6.18E2,2.05E2,3.67E2,1.566E3,2.181E3,5.2E1,1.14E2,4.93E2,1.25E2],"tree_param":{"num_deleted":"0","num_feature":"252","num_nodes":"15","size_leaf_vector":"1"}},{"base_weights":[-1.20549446E2,-3.6996106E3,1.8851545E4,-1.3037355E4,-2.1807576E3,1.2633175E4,2.0578865E4,-1.5640884E3,-9.785678E2,-4.474731E2,-1.4744909E1,7.5875507E2,1.3097738E3,1.7020908E3,2.0239786E3],"categories":[],"categories_nodes":[],"categories_segments":[],"categories_sizes":[],"default_left":[0,0,0,0,0,0,0,0,0,0,0,0,0,0,0],"id":17,"left_children":[1,3,5,7,9,11,13,-1,-1,-1,-1,-1,-1,-1,-1],"loss_changes":[3.4738143E11,6.101462E10,8.477147E9,5.407482E9,2.1193486E10,1.4033654E9,1.593344E9,0E0,0E0,0E0,0E0,0E0,0E0,0E0,0E0],"parents":[2147483647,0,0,1,1,2,2,3,3,4,4,5,5,6,6],"right_children":[2,4,6,8,10,12,14,-1,-1,-1,-1,-1,-1,-1,-1],"split_conditions":[7.517162E4,5.61616E4,9.136103E4,4.4885E4,6.372445E4,8.102329E4,9.753318E4,-1.5640884E3,-9.785678E2,-4.474731E2,-1.4744909E1,7.5875507E2,1.3097738E3,1.7020908E3,2.0239786E3],"split_indices":[75,13,75,0,6,7,13,0,0,0,0,0,0,0,0],"split_type":[0,0,0,0,0,0,0,0,0,0,0,0,0,0,0],"sum_hessian":[5.114E3,4.303E3,8.11E2,6.01E2,3.702E3,1.78E2,6.33E2,1.86E2,4.15E2,1.536E3,2.166E3,6.1E1,1.17E2,3.79E2,2.54E2],"tree_param":{"num_deleted":"0","num_feature":"252","num_nodes":"15","size_leaf_vector":"1"}},{"base_weights":[-9.6950144E-1,-3.5860583E3,1.8960545E4,-1.2258727E4,-1.9696445E3,1.0914272E4,2.0323447E4,-1.5832388E3,-8.986054E2,-4.15102E2,2.1267092E0,7.434912E2,1.2099255E3,1.6635681E3,2.0129075E3],"categories":[],"categories_nodes":[],"categories_segments":[],"categories_sizes":[],"default_left":[0,0,0,0,0,0,0,0,0,0,0,0,0,0,0],"id":18,"left_children":[1,3,5,7,9,11,13,-1,-1,-1,-1,-1,-1,-1,-1],"loss_changes":[3.509657E11,6.0845326E10,8.794505E9,8.0020767E9,1.9617174E10,7.2161485E8,2.2326804E9,0E0,0E0,0E0,0E0,0E0,0E0,0E0,0E0],"parents":[2147483647,0,0,1,1,2,2,3,3,4,4,5,5,6,6],"right_children":[2,4,6,8,10,12,14,-1,-1,-1,-1,-1,-1,-1,-1],"split_conditions":[7.402556E4,5.747951E4,8.933309E4,4.529643E4,6.42E4,8.095541E4,9.805751E4,-1.5832388E3,-8.986054E2,-4.15102E2,2.1267092E0,7.434912E2,1.2099255E3,1.6635681E3,2.0129075E3],"split_indices":[188,6,77,178,6,28,6,0,0,0,0,0,0,0,0],"split_type":[0,0,0,0,0,0,0,0,0,0,0,0,0,0,0],"sum_hessian":[5.161E3,4.341E3,8.2E2,6.81E2,3.66E3,1.2E2,7E2,1.91E2,4.9E2,1.558E3,2.102E3,6.3E1,5.7E1,4.09E2,2.91E2],"tree_param":{"num_deleted":"0","num_feature":"252","num_nodes":"15","size_leaf_vector":"1"}},{"base_weights":[-3.8775125E0,-3.5999783E3,1.8857023E4,-9.168321E3,-1.23441E3,1.2552851E4,2.0492873E4,-1.4505387E3,-6.5880774E2,-2.9888675E2,3.474266E1,7.5416364E2,1.3095573E3,1.7398354E3,2.1374722E3],"categories":[],"categories_nodes":[],"categories_segments":[],"categories_sizes":[],"default_left":[0,0,0,0,0,0,0,0,0,0,0,0,0,0,0],"id":19,"left_children":[1,3,5,7,9,11,13,-1,-1,-1,-1,-1,-1,-1,-1],"loss_changes":[3.4644538E11,5.6497717E10,8.1937367E9,1.6032711E10,1.0368664E10,1.3804155E9,1.7571512E9,0E0,0E0,0E0,0E0,0E0,0E0,0E0,0E0],"parents":[2147483647,0,0,1,1,2,2,3,3,4,4,5,5,6,6],"right_children":[2,4,6,8,10,12,14,-1,-1,-1,-1,-1,-1,-1,-1],"split_conditions":[7.49633E4,6.0355E4,9.071953E4,4.904986E4,6.481872E4,7.867635E4,9.960598E4,-1.4505387E3,-6.5880774E2,-2.9888675E2,3.474266E1,7.5416364E2,1.3095573E3,1.7398354E3,2.1374722E3],"split_indices":[35,13,67,77,13,185,12,0,0,0,0,0,0,0,0],"split_type":[0,0,0,0,0,0,0,0,0,0,0,0,0,0,0],"sum_hessian":[5.106E3,4.289E3,8.17E2,1.278E3,3.011E3,1.7E2,6.47E2,2.54E2,1.024E3,1.306E3,1.705E3,6E1,1.1E2,5.11E2,1.36E2],"tree_param":{"num_deleted":"0","num_feature":"252","num_nodes":"15","size_leaf_vector":"1"}},{"base_weights":[-1.8702959E2,-3.3596814E3,1.7087615E4,-8.062954E3,-8.249111E2,1.0003872E4,1.8376094E4,-1.1545675E3,-5.2173627E2,-1.784345E2,1.5368741E2,6.5469885E2,1.0906228E3,1.4726509E3,1.8200184E3],"categories":[],"categories_nodes":[],"categories_segments":[],"categories_sizes":[],"default_left":[0,0,0,0,0,0,0,0,0,0,0,0,0,0,0],"id":20,"left_children":[1,3,5,7,9,11,13,-1,-1,-1,-1,-1,-1,-1,-1],"loss_changes":[2.7972773E11,5.139946E10,7.0557204E9,1.6244064E10,8.41508E9,6.513398E8,2.2176563E9,0E0,0E0,0E0,0E0,0E0,0E0,0E0,0E0],"parents":[2147483647,0,0,1,1,2,2,3,3,4,4,5,5,6,6],"right_children":[2,4,6,8,10,12,14,-1,-1,-1,-1,-1,-1,-1,-1],"split_conditions":[7.466297E4,6.146315E4,9.059598E4,5.3E4,6.805E4,8.224467E4,9.7428E4,-1.1545675E3,-5.2173627E2,-1.784345E2,1.5368741E2,6.5469885E2,1.0906228E3,1.4726509E3,1.8200184E3],"split_indices":[42,6,6,13,6,5,6,0,0,0,0,0,0,0,0],"split_type":[0,0,0,0,0,0,0,0,0,0,0,0,0,0,0],"sum_hessian":[5.102E3,4.311E3,7.91E2,1.509E3,2.802E3,1.23E2,6.68E2,4.68E2,1.041E3,1.917E3,8.85E2,5.8E1,6.5E1,3.55E2,3.13E2],"tree_param":{"num_deleted":"0","num_feature":"252","num_nodes":"15","size_leaf_vector":"1"}},{"base_weights":[2.6817938E1,-3.334456E3,1.6978729E4,-7.9677573E3,-8.8163165E2,1.0718004E4,1.8654684E4,-1.1514059E3,-5.157554E2,-1.8701057E2,1.2933762E2,6.7723413E2,1.1542927E3,1.5582498E3,1.8817935E3],"categories":[],"categories_nodes":[],"categories_segments":[],"categories_sizes":[],"default_left":[0,0,0,0,0,0,0,0,0,0,0,0,0,0,0],"id":21,"left_children":[1,3,5,7,9,11,13,-1,-1,-1,-1,-1,-1,-1,-1],"loss_changes":[2.8819757E11,4.7963E10,8.594113E9,1.5705145E10,7.839468E9,1.1543142E9,1.5507948E9,0E0,0E0,0E0,0E0,0E0,0E0,0E0,0E0],"parents":[2147483647,0,0,1,1,2,2,3,3,4,4,5,5,6,6],"right_children":[2,4,6,8,10,12,14,-1,-1,-1,-1,-1,-1,-1,-1],"split_conditions":[7.464445E4,6.146315E4,9.080584E4,5.385682E4,6.736679E4,8.222213E4,9.8724E4,-1.1514059E3,-5.157554E2,-1.8701057E2,1.2933762E2,6.7723413E2,1.1542927E3,1.5582498E3,1.8817935E3],"split_indices":[178,6,46,6,13,4,6,0,0,0,0,0,0,0,0],"split_type":[0,0,0,0,0,0,0,0,0,0,0,0,0,0,0],"sum_hessian":[5.056E3,4.22E3,8.36E2,1.46E3,2.76E3,1.78E2,6.58E2,4.45E2,1.015E3,1.814E3,9.46E2,7.6E1,1.02E2,4.51E2,2.07E2],"tree_param":{"num_deleted":"0","num_feature":"252","num_nodes":"15","size_leaf_vector":"1"}},{"base_weights":[3.431015E1,-3.3722222E3,1.6955959E4,-8.818064E3,-1.295974E3,1.0705866E4,1.8686557E4,-1.3634111E3,-6.436812E2,-2.704672E2,4.425687E1,6.608828E2,1.1677295E3,1.5858046E3,1.9513787E3],"categories":[],"categories_nodes":[],"categories_segments":[],"categories_sizes":[],"default_left":[0,0,0,0,0,0,0,0,0,0,0,0,0,0,0],"id":22,"left_children":[1,3,5,7,9,11,13,-1,-1,-1,-1,-1,-1,-1,-1],"loss_changes":[2.9305527E11,4.7839474E10,9.027174E9,1.1972878E10,9.554372E9,1.3829755E9,1.5429632E9,0E0,0E0,0E0,0E0,0E0,0E0,0E0,0E0],"parents":[2147483647,0,0,1,1,2,2,3,3,4,4,5,5,6,6],"right_children":[2,4,6,8,10,12,14,-1,-1,-1,-1,-1,-1,-1,-1],"split_conditions":[7.3658E4,6.0204E4,9.095558E4,4.8123453E4,6.607498E4,8.095541E4,9.960598E4,-1.3634111E3,-6.436812E2,-2.704672E2,4.425687E1,6.608828E2,1.1677295E3,1.5858046E3,1.9513787E3],"split_indices":[2,6,61,66,6,28,13,0,0,0,0,0,0,0,0],"split_type":[0,0,0,0,0,0,0,0,0,0,0,0,0,0,0],"sum_hessian":[5.082E3,4.231E3,8.51E2,1.167E3,3.064E3,1.86E2,6.65E2,2.29E2,9.38E2,1.555E3,1.509E3,8E1,1.06E2,5.25E2,1.4E2],"tree_param":{"num_deleted":"0","num_feature":"252","num_nodes":"15","size_leaf_vector":"1"}},{"base_weights":[7.331736E1,-3.3155225E3,1.7154143E4,-1.1768829E4,-2.00552E3,9.8586045E3,1.8472451E4,-1.4481285E3,-8.7321643E2,-3.9248965E2,-6.2615523E0,6.8140686E2,1.119495E3,1.4993477E3,1.8309893E3],"categories":[],"categories_nodes":[],"categories_segments":[],"categories_sizes":[],"default_left":[0,0,0,0,0,0,0,0,0,0,0,0,0,0,0],"id":23,"left_children":[1,3,5,7,9,11,13,-1,-1,-1,-1,-1,-1,-1,-1],"loss_changes":[2.96822E11,4.736219E10,7.993983E9,4.918223E9,1.720075E10,6.989537E8,2.1289206E9,0E0,0E0,0E0,0E0,0E0,0E0,0E0,0E0],"parents":[2147483647,0,0,1,1,2,2,3,3,4,4,5,5,6,6],"right_children":[2,4,6,8,10,12,14,-1,-1,-1,-1,-1,-1,-1,-1],"split_conditions":[7.471052E4,5.61616E4,8.9370734E4,4.531835E4,6.3864402E4,7.884473E4,9.712211E4,-1.4481285E3,-8.7321643E2,-3.9248965E2,-6.2615523E0,6.8140686E2,1.119495E3,1.4993477E3,1.8309893E3],"split_indices":[179,13,81,4,34,187,13,0,0,0,0,0,0,0,0],"split_type":[0,0,0,0,0,0,0,0,0,0,0,0,0,0,0],"sum_hessian":[5.126E3,4.278E3,8.48E2,5.73E2,3.705E3,1.31E2,7.17E2,1.73E2,4E2,1.654E3,2.051E3,7.4E1,5.7E1,4.04E2,3.13E2],"tree_param":{"num_deleted":"0","num_feature":"252","num_nodes":"15","size_leaf_vector":"1"}},{"base_weights":[5.428071E1,-3.0637444E3,1.5587227E4,-9.279218E3,-1.4658138E3,9.918877E3,1.7042688E4,-1.2398812E3,-6.629943E2,-2.985272E2,2.9435797E1,6.067472E2,1.0714502E3,1.3777563E3,1.6836068E3],"categories":[],"categories_nodes":[],"categories_segments":[],"categories_sizes":[],"default_left":[0,0,0,0,0,0,0,0,0,0,0,0,0,0,0],"id":24,"left_children":[1,3,5,7,9,11,13,-1,-1,-1,-1,-1,-1,-1,-1],"loss_changes":[2.4912819E11,4.2534863E10,6.9359206E9,7.370236E9,1.1535016E10,1.087443E9,1.7247764E9,0E0,0E0,0E0,0E0,0E0,0E0,0E0,0E0],"parents":[2147483647,0,0,1,1,2,2,3,3,4,4,5,5,6,6],"right_children":[2,4,6,8,10,12,14,-1,-1,-1,-1,-1,-1,-1,-1],"split_conditions":[7.471052E4,5.852668E4,8.69485E4,4.900995E4,6.462801E4,8.184671E4,9.712211E4,-1.2398812E3,-6.629943E2,-2.985272E2,2.9435797E1,6.067472E2,1.0714502E3,1.3777563E3,1.6836068E3],"split_indices":[179,6,84,6,13,3,13,0,0,0,0,0,0,0,0],"split_type":[0,0,0,0,0,0,0,0,0,0,0,0,0,0,0],"sum_hessian":[5.142E3,4.283E3,8.59E2,8.75E2,3.408E3,1.77E2,6.82E2,2.47E2,6.28E2,1.663E3,1.745E3,7.3E1,1.04E2,3.72E2,3.1E2],"tree_param":{"num_deleted":"0","num_feature":"252","num_nodes":"15","size_leaf_vector":"1"}},{"base_weights":[-3.8005215E1,-3.028485E3,1.5773079E4,-1.0255182E4,-1.6381893E3,1.0576339E4,1.718142E4,-1.3032645E3,-7.5197473E2,-3.1582803E2,3.2293808E1,6.255258E2,1.098852E3,1.4064221E3,1.6678253E3],"categories":[],"categories_nodes":[],"categories_segments":[],"categories_sizes":[],"default_left":[0,0,0,0,0,0,0,0,0,0,0,0,0,0,0],"id":25,"left_children":[1,3,5,7,9,11,13,-1,-1,-1,-1,-1,-1,-1,-1],"loss_changes":[2.3631369E11,4.2212176E10,5.64745E9,5.2668826E9,1.3442377E10,9.912443E8,1.0620928E9,0E0,0E0,0E0,0E0,0E0,0E0,0E0,0E0],"parents":[2147483647,0,0,1,1,2,2,3,3,4,4,5,5,6,6],"right_children":[2,4,6,8,10,12,14,-1,-1,-1,-1,-1,-1,-1,-1],"split_conditions":[7.398967E4,5.747951E4,9.150861E4,4.7592758E4,6.5179E4,8.1032E4,9.712211E4,-1.3032645E3,-7.5197473E2,-3.1582803E2,3.2293808E1,6.255258E2,1.098852E3,1.4064221E3,1.6678253E3],"split_indices":[186,6,29,175,6,8,13,0,0,0,0,0,0,0,0],"split_type":[0,0,0,0,0,0,0,0,0,0,0,0,0,0,0],"sum_hessian":[4.996E3,4.202E3,7.94E2,6.77E2,3.525E3,1.71E2,6.23E2,1.97E2,4.8E2,1.805E3,1.72E3,5.8E1,1.13E2,3.31E2,2.92E2],"tree_param":{"num_deleted":"0","num_feature":"252","num_nodes":"15","size_leaf_vector":"1"}},{"base_weights":[-2.8166723E0,-3.0327969E3,1.5809816E4,-1.0908358E4,-1.7813967E3,1.066629E4,1.7160154E4,-1.3197957E3,-8.0358496E2,-3.7342606E2,-8.771181E0,6.242658E2,1.0990991E3,1.4647719E3,1.888447E3],"categories":[],"categories_nodes":[],"categories_segments":[],"categories_sizes":[],"default_left":[0,0,0,0,0,0,0,0,0,0,0,0,0,0,0],"id":26,"left_children":[1,3,5,7,9,11,13,-1,-1,-1,-1,-1,-1,-1,-1],"loss_changes":[2.4281196E11,4.189651E10,5.488394E9,4.1759703E9,1.488019E10,9.6787866E8,1.5537111E9,0E0,0E0,0E0,0E0,0E0,0E0,0E0,0E0],"parents":[2147483647,0,0,1,1,2,2,3,3,4,4,5,5,6,6],"right_children":[2,4,6,8,10,12,14,-1,-1,-1,-1,-1,-1,-1,-1],"split_conditions":[7.641179E4,5.61616E4,9.136178E4,4.52414E4,6.372445E4,8.224467E4,1.0062941E5,-1.3197957E3,-8.0358496E2,-3.7342606E2,-8.771181E0,6.242658E2,1.0990991E3,1.4647719E3,1.888447E3],"split_indices":[179,13,76,3,6,5,13,0,0,0,0,0,0,0,0],"split_type":[0,0,0,0,0,0,0,0,0,0,0,0,0,0,0],"sum_hessian":[5.066E3,4.252E3,8.14E2,5.82E2,3.67E3,1.71E2,6.43E2,1.88E2,3.94E2,1.509E3,2.161E3,5.5E1,1.16E2,5.49E2,9.4E1],"tree_param":{"num_deleted":"0","num_feature":"252","num_nodes":"15","size_leaf_vector":"1"}},{"base_weights":[3.0018335E1,-3.1285945E3,1.5524845E4,-8.8770205E3,-1.4318062E3,9.858322E3,1.7019213E4,-1.2682894E3,-6.4082263E2,-2.8708994E2,1.5709637E1,6.265833E2,1.0866351E3,1.4548508E3,1.86521E3],"categories":[],"categories_nodes":[],"categories_segments":[],"categories_sizes":[],"default_left":[0,0,0,0,0,0,0,0,0,0,0,0,0,0,0],"id":27,"left_children":[1,3,5,7,9,11,13,-1,-1,-1,-1,-1,-1,-1,-1],"loss_changes":[2.502838E11,4.1421873E10,7.175209E9,8.644714E9,9.441705E9,1.1270533E9,1.5381299E9,0E0,0E0,0E0,0E0,0E0,0E0,0E0,0E0],"parents":[2147483647,0,0,1,1,2,2,3,3,4,4,5,5,6,6],"right_children":[2,4,6,8,10,12,14,-1,-1,-1,-1,-1,-1,-1,-1],"split_conditions":[7.3777E4,5.8516E4,9.066128E4,4.6967492E4,6.506666E4,8.224467E4,9.91398E4,-1.2682894E3,-6.4082263E2,-2.8708994E2,1.5709637E1,6.265833E2,1.0866351E3,1.4548508E3,1.86521E3],"split_indices":[3,13,78,183,6,5,185,0,0,0,0,0,0,0,0],"split_type":[0,0,0,0,0,0,0,0,0,0,0,0,0,0,0],"sum_hessian":[5.112E3,4.247E3,8.65E2,9.67E2,3.28E3,1.82E2,6.83E2,2.3E2,7.37E2,1.552E3,1.728E3,8.4E1,9.8E1,5.84E2,9.9E1],"tree_param":{"num_deleted":"0","num_feature":"252","num_nodes":"15","size_leaf_vector":"1"}},{"base_weights":[-1.7771286E0,-2.8483245E3,1.407986E4,-7.236059E3,-8.526301E2,7.3323184E3,1.5204364E4,-9.700619E2,-4.5541702E2,-1.7053796E2,1.1078893E2,5.489429E2,8.344716E2,1.1854758E3,1.494833E3],"categories":[],"categories_nodes":[],"categories_segments":[],"categories_sizes":[],"default_left":[0,0,0,0,0,0,0,0,0,0,0,0,0,0,0],"id":28,"left_children":[1,3,5,7,9,11,13,-1,-1,-1,-1,-1,-1,-1,-1],"loss_changes":[2.054659E11,3.7331714E10,6.435455E9,1.0287276E10,6.5208197E9,2.4348774E8,1.9927859E9,0E0,0E0,0E0,0E0,0E0,0E0,0E0,0E0],"parents":[2147483647,0,0,1,1,2,2,3,3,4,4,5,5,6,6],"right_children":[2,4,6,8,10,12,14,-1,-1,-1,-1,-1,-1,-1,-1],"split_conditions":[7.017879E4,6.045E4,8.968365E4,5.275328E4,6.731238E4,8.123953E4,9.664736E4,-9.700619E2,-4.5541702E2,-1.7053796E2,1.1078893E2,5.489429E2,8.344716E2,1.1854758E3,1.494833E3],"split_indices":[89,13,6,12,13,14,6,0,0,0,0,0,0,0,0],"split_type":[0,0,0,0,0,0,0,0,0,0,0,0,0,0,0],"sum_hessian":[5.124E3,4.263E3,8.61E2,1.332E3,2.931E3,1.24E2,7.37E2,4.89E2,8.43E2,1.946E3,9.85E2,8.1E1,4.3E1,3.37E2,4E2],"tree_param":{"num_deleted":"0","num_feature":"252","num_nodes":"15","size_leaf_vector":"1"}},{"base_weights":[-3.6697884E1,-2.8110623E3,1.4142052E4,-7.1691685E3,-8.938917E2,7.9722983E3,1.5408146E4,-9.604108E2,-4.574528E2,-1.6690118E2,1.2548655E2,5.638147E2,9.072865E2,1.2380587E3,1.5327823E3],"categories":[],"categories_nodes":[],"categories_segments":[],"categories_sizes":[],"default_left":[0,0,0,0,0,0,0,0,0,0,0,0,0,0,0],"id":29,"left_children":[1,3,5,7,9,11,13,-1,-1,-1,-1,-1,-1,-1,-1],"loss_changes":[2.0045698E11,3.5603472E10,6.399017E9,9.511113E9,6.6738145E9,4.6266982E8,1.6518513E9,0E0,0E0,0E0,0E0,0E0,0E0,0E0,0E0],"parents":[2147483647,0,0,1,1,2,2,3,3,4,4,5,5,6,6],"right_children":[2,4,6,8,10,12,14,-1,-1,-1,-1,-1,-1,-1,-1],"split_conditions":[7.3777E4,6.045E4,8.934322E4,5.265E4,6.805E4,8.176656E4,9.69E4,-9.604108E2,-4.574528E2,-1.6690118E2,1.2548655E2,5.638147E2,9.072865E2,1.2380587E3,1.5327823E3],"split_indices":[3,13,78,11,6,2,13,0,0,0,0,0,0,0,0],"split_type":[0,0,0,0,0,0,0,0,0,0,0,0,0,0,0],"sum_hessian":[5.094E3,4.261E3,8.33E2,1.301E3,2.96E3,1.43E2,6.9E2,4.68E2,8.33E2,2.077E3,8.83E2,8.4E1,5.9E1,3.78E2,3.12E2],"tree_param":{"num_deleted":"0","num_feature":"252","num_nodes":"15","size_leaf_vector":"1"}},{"base_weights":[-4.2986862E1,-2.8089858E3,1.4014232E4,-1.030257E4,-1.7355496E3,7.815131E3,1.5303048E4,-1.2017897E3,-7.674329E2,-3.5563495E2,-2.265524E1,5.590382E2,9.058561E2,1.1765464E3,1.4760457E3],"categories":[],"categories_nodes":[],"categories_segments":[],"categories_sizes":[],"default_left":[0,0,0,0,0,0,0,0,0,0,0,0,0,0,0],"id":30,"left_children":[1,3,5,7,9,11,13,-1,-1,-1,-1,-1,-1,-1,-1],"loss_changes":[1.9650657E11,3.3952051E10,6.52655E9,2.7382456E9,1.2340775E10,4.6531686E8,1.612202E9,0E0,0E0,0E0,0E0,0E0,0E0,0E0,0E0],"parents":[2147483647,0,0,1,1,2,2,3,3,4,4,5,5,6,6],"right_children":[2,4,6,8,10,12,14,-1,-1,-1,-1,-1,-1,-1,-1],"split_conditions":[7.331485E4,5.540085E4,8.934322E4,4.527974E4,6.3388E4,8.166873E4,9.588935E4,-1.2017897E3,-7.674329E2,-3.5563495E2,-2.265524E1,5.590382E2,9.058561E2,1.1765464E3,1.4760457E3],"split_indices":[13,6,78,177,6,13,33,0,0,0,0,0,0,0,0],"split_type":[0,0,0,0,0,0,0,0,0,0,0,0,0,0,0],"sum_hessian":[5.052E3,4.222E3,8.3E2,5.28E2,3.694E3,1.44E2,6.86E2,1.81E2,3.47E2,1.464E3,2.23E3,8.9E1,5.5E1,2.61E2,4.25E2],"tree_param":{"num_deleted":"0","num_feature":"252","num_nodes":"15","size_leaf_vector":"1"}},{"base_weights":[7.0735664E1,-2.8061504E3,1.4267695E4,-1.0034442E4,-1.6896907E3,9.245772E3,1.5765806E4,-1.2023566E3,-7.4494763E2,-3.531158E2,-1.907051E1,5.734675E2,1.013935E3,1.3502632E3,1.7416943E3],"categories":[],"categories_nodes":[],"categories_segments":[],"categories_sizes":[],"default_left":[0,0,0,0,0,0,0,0,0,0,0,0,0,0,0],"id":31,"left_children":[1,3,5,7,9,11,13,-1,-1,-1,-1,-1,-1,-1,-1],"loss_changes":[2.0747683E11,3.4071677E10,6.302761E9,3.1665766E9,1.2272528E10,1.1230863E9,1.2510986E9,0E0,0E0,0E0,0E0,0E0,0E0,0E0,0E0],"parents":[2147483647,0,0,1,1,2,2,3,3,4,4,5,5,6,6],"right_children":[2,4,6,8,10,12,14,-1,-1,-1,-1,-1,-1,-1,-1],"split_conditions":[7.0178016E4,5.648953E4,9.331977E4,4.4885E4,6.3388E4,7.859498E4,9.975676E4,-1.2023566E3,-7.4494763E2,-3.531158E2,-1.907051E1,5.734675E2,1.013935E3,1.3502632E3,1.7416943E3],"split_indices":[88,6,179,0,6,182,182,0,0,0,0,0,0,0,0],"split_type":[0,0,0,0,0,0,0,0,0,0,0,0,0,0,0],"sum_hessian":[5.078E3,4.223E3,8.55E2,5.64E2,3.659E3,1.98E2,6.57E2,1.82E2,3.82E2,1.44E3,2.219E3,8.7E1,1.11E2,5.69E2,8.8E1],"tree_param":{"num_deleted":"0","num_feature":"252","num_nodes":"15","size_leaf_vector":"1"}},{"base_weights":[-7.431726E1,-2.6034995E3,1.2812886E4,-6.163235E3,-5.8917694E2,6.704793E3,1.384507E4,-9.962284E2,-4.3448886E2,-1.14095E2,1.6750905E2,4.9832993E2,7.756783E2,1.0777166E3,1.3595122E3],"categories":[],"categories_nodes":[],"categories_segments":[],"categories_sizes":[],"default_left":[0,0,0,0,0,0,0,0,0,0,0,0,0,0,0],"id":32,"left_children":[1,3,5,7,9,11,13,-1,-1,-1,-1,-1,-1,-1,-1],"loss_changes":[1.6508574E11,3.035586E10,5.1516867E9,9.831649E9,4.6166277E9,2.2566144E8,1.5803515E9,0E0,0E0,0E0,0E0,0E0,0E0,0E0,0E0],"parents":[2147483647,0,0,1,1,2,2,3,3,4,4,5,5,6,6],"right_children":[2,4,6,8,10,12,14,-1,-1,-1,-1,-1,-1,-1,-1],"split_conditions":[7.408301E4,6.174201E4,8.911155E4,5.139634E4,6.891156E4,8.172747E4,9.664736E4,-9.962284E2,-4.3448886E2,-1.14095E2,1.6750905E2,4.9832993E2,7.756783E2,1.0777166E3,1.3595122E3],"split_indices":[5,6,20,6,6,0,6,0,0,0,0,0,0,0,0],"split_type":[0,0,0,0,0,0,0,0,0,0,0,0,0,0,0],"sum_hessian":[5.063E3,4.233E3,8.3E2,1.529E3,2.704E3,1.21E2,7.09E2,3.11E2,1.218E3,2.113E3,5.91E2,8E1,4.1E1,3.2E2,3.89E2],"tree_param":{"num_deleted":"0","num_feature":"252","num_nodes":"15","size_leaf_vector":"1"}},{"base_weights":[9.502873E0,-2.4828232E3,1.2957549E4,-5.893195E3,-5.228955E2,8.554029E3,1.4299746E4,-8.681651E2,-3.84233E2,-1.1045638E2,1.5674156E2,5.1449725E2,8.995696E2,1.2204414E3,1.5561945E3],"categories":[],"categories_nodes":[],"categories_segments":[],"categories_sizes":[],"default_left":[0,0,0,0,0,0,0,0,0,0,0,0,0,0,0],"id":33,"left_children":[1,3,5,7,9,11,13,-1,-1,-1,-1,-1,-1,-1,-1],"loss_changes":[1.6312458E11,2.8330514E10,4.707721E9,9.377231E9,4.404181E9,7.714058E8,9.707602E8,0E0,0E0,0E0,0E0,0E0,0E0,0E0,0E0],"parents":[2147483647,0,0,1,1,2,2,3,3,4,4,5,5,6,6],"right_children":[2,4,6,8,10,12,14,-1,-1,-1,-1,-1,-1,-1,-1],"split_conditions":[7.427199E4,6.150442E4,9.147678E4,5.39E4,6.836E4,8.224467E4,1.0062941E5,-8.681651E2,-3.84233E2,-1.1045638E2,1.5674156E2,5.1449725E2,8.995696E2,1.2204414E3,1.5561945E3],"split_indices":[6,13,28,13,13,5,13,0,0,0,0,0,0,0,0],"split_type":[0,0,0,0,0,0,0,0,0,0,0,0,0,0,0],"sum_hessian":[5.053E3,4.238E3,8.15E2,1.546E3,2.692E3,1.92E2,6.23E2,4.49E2,1.097E3,2.049E3,6.43E2,7E1,1.22E2,5.27E2,9.6E1],"tree_param":{"num_deleted":"0","num_feature":"252","num_nodes":"15","size_leaf_vector":"1"}},{"base_weights":[-4.6618385E0,-2.5231567E3,1.2949644E4,-6.460244E3,-7.8204224E2,7.9545825E3,1.4292609E4,-8.85881E2,-4.16931E2,-1.4605838E2,1.481499E2,5.1365625E2,8.8865894E2,1.2255472E3,1.680229E3],"categories":[],"categories_nodes":[],"categories_segments":[],"categories_sizes":[],"default_left":[0,0,0,0,0,0,0,0,0,0,0,0,0,0,0],"id":34,"left_children":[1,3,5,7,9,11,13,-1,-1,-1,-1,-1,-1,-1,-1],"loss_changes":[1.6915848E11,2.9752044E10,5.5546184E9,8.209785E9,6.308344E9,7.455519E8,1.3961544E9,0E0,0E0,0E0,0E0,0E0,0E0,0E0,0E0],"parents":[2147483647,0,0,1,1,2,2,3,3,4,4,5,5,6,6],"right_children":[2,4,6,8,10,12,14,-1,-1,-1,-1,-1,-1,-1,-1],"split_conditions":[7.3156E4,6.054667E4,9.066043E4,5.2636867E4,6.794194E4,7.859498E4,1.0071504E5,-8.85881E2,-4.16931E2,-1.4605838E2,1.481499E2,5.1365625E2,8.8865894E2,1.2255472E3,1.680229E3],"split_indices":[11,13,77,181,13,182,188,0,0,0,0,0,0,0,0],"split_type":[0,0,0,0,0,0,0,0,0,0,0,0,0,0,0],"sum_hessian":[5.183E3,4.34E3,8.43E2,1.33E3,3.01E3,1.8E2,6.63E2,4.49E2,8.81E2,2.229E3,7.81E2,8.8E1,9.2E1,5.96E2,6.7E1],"tree_param":{"num_deleted":"0","num_feature":"252","num_nodes":"15","size_leaf_vector":"1"}},{"base_weights":[1.2219507E1,-2.4978508E3,1.2927993E4,-5.941904E3,-5.683552E2,9.36131E3,1.4496611E4,-8.775707E2,-3.873469E2,-1.2767677E2,1.3850731E2,5.259071E2,9.577148E2,1.2480879E3,1.6612194E3],"categories":[],"categories_nodes":[],"categories_segments":[],"categories_sizes":[],"default_left":[0,0,0,0,0,0,0,0,0,0,0,0,0,0,0],"id":35,"left_children":[1,3,5,7,9,11,13,-1,-1,-1,-1,-1,-1,-1,-1],"loss_changes":[1.6455729E11,2.8238883E10,4.493558E9,9.467875E9,5.000431E9,1.1620106E9,9.221816E8,0E0,0E0,0E0,0E0,0E0,0E0,0E0,0E0],"parents":[2147483647,0,0,1,1,2,2,3,3,4,4,5,5,6,6],"right_children":[2,4,6,8,10,12,14,-1,-1,-1,-1,-1,-1,-1,-1],"split_conditions":[7.427199E4,6.174201E4,9.381747E4,5.265E4,6.778273E4,8.184671E4,1.0265E5,-8.775707E2,-3.873469E2,-1.2767677E2,1.3850731E2,5.259071E2,9.577148E2,1.2480879E3,1.6612194E3],"split_indices":[6,6,34,11,12,3,6,0,0,0,0,0,0,0,0],"split_type":[0,0,0,0,0,0,0,0,0,0,0,0,0,0,0],"sum_hessian":[5.074E3,4.249E3,8.25E2,1.525E3,2.724E3,2.54E2,5.71E2,4.41E2,1.084E3,1.936E3,7.88E2,7.4E1,1.8E2,5.14E2,5.7E1],"tree_param":{"num_deleted":"0","num_feature":"252","num_nodes":"15","size_leaf_vector":"1"}},{"base_weights":[-4.349803E1,-2.3536074E3,1.171554E4,-7.907788E3,-1.288371E3,6.545256E3,1.2731947E4,-1.0369233E3,-5.7756335E2,-2.4643349E2,2.1354422E1,4.5930298E2,7.4437726E2,1.0778503E3,1.4756505E3],"categories":[],"categories_nodes":[],"categories_segments":[],"categories_sizes":[],"default_left":[0,0,0,0,0,0,0,0,0,0,0,0,0,0,0],"id":36,"left_children":[1,3,5,7,9,11,13,-1,-1,-1,-1,-1,-1,-1,-1],"loss_changes":[1.3796637E11,2.5105684E10,4.3042324E9,3.5620618E9,8.0399693E9,3.0899917E8,1.5107195E9,0E0,0E0,0E0,0E0,0E0,0E0,0E0,0E0],"parents":[2147483647,0,0,1,1,2,2,3,3,4,4,5,5,6,6],"right_children":[2,4,6,8,10,12,14,-1,-1,-1,-1,-1,-1,-1,-1],"split_conditions":[7.345604E4,5.747951E4,9.059598E4,4.529643E4,6.446723E4,8.166873E4,1.0062941E5,-1.0369233E3,-5.7756335E2,-2.4643349E2,2.1354422E1,4.5930298E2,7.4437726E2,1.0778503E3,1.4756505E3],"split_indices":[18,6,6,178,13,13,13,0,0,0,0,0,0,0,0],"split_type":[0,0,0,0,0,0,0,0,0,0,0,0,0,0,0],"sum_hessian":[5.077E3,4.244E3,8.33E2,6.82E2,3.562E3,1.38E2,6.95E2,1.87E2,4.95E2,1.811E3,1.751E3,8E1,5.8E1,5.99E2,9.6E1],"tree_param":{"num_deleted":"0","num_feature":"252","num_nodes":"15","size_leaf_vector":"1"}},{"base_weights":[-3.5893177E1,-2.3113184E3,1.1617858E4,-5.4599917E3,-4.6835815E2,6.654304E3,1.2734518E4,-9.490499E2,-3.949202E2,-1.05699425E2,1.2806444E2,4.6880542E2,7.49824E2,9.951201E2,1.2431746E3],"categories":[],"categories_nodes":[],"categories_segments":[],"categories_sizes":[],"default_left":[0,0,0,0,0,0,0,0,0,0,0,0,0,0,0],"id":37,"left_children":[1,3,5,7,9,11,13,-1,-1,-1,-1,-1,-1,-1,-1],"loss_changes":[1.3520845E11,2.4752325E10,4.5371146E9,8.3632333E9,3.682284E9,3.384233E8,1.1473961E9,0E0,0E0,0E0,0E0,0E0,0E0,0E0,0E0],"parents":[2147483647,0,0,1,1,2,2,3,3,4,4,5,5,6,6],"right_children":[2,4,6,8,10,12,14,-1,-1,-1,-1,-1,-1,-1,-1],"split_conditions":[7.017879E4,6.195E4,9.059598E4,5.016057E4,6.803077E4,8.238094E4,9.695371E4,-9.490499E2,-3.949202E2,-1.05699425E2,1.2806444E2,4.6880542E2,7.49824E2,9.951201E2,1.2431746E3],"split_indices":[89,6,6,6,13,6,6,0,0,0,0,0,0,0,0],"split_type":[0,0,0,0,0,0,0,0,0,0,0,0,0,0,0],"sum_hessian":[5.097E3,4.265E3,8.32E2,1.574E3,2.691E3,1.54E2,6.78E2,2.59E2,1.315E3,1.955E3,7.36E2,8.8E1,6.6E1,3E2,3.78E2],"tree_param":{"num_deleted":"0","num_feature":"252","num_nodes":"15","size_leaf_vector":"1"}},{"base_weights":[7.2284546E1,-2.2968699E3,1.1708543E4,-5.2490703E3,-3.8376465E2,7.5652046E3,1.3025641E4,-7.8621313E2,-3.416514E2,-9.678617E1,1.5840399E2,4.6064618E2,8.260795E2,1.1113105E3,1.4866552E3],"categories":[],"categories_nodes":[],"categories_segments":[],"categories_sizes":[],"default_left":[0,0,0,0,0,0,0,0,0,0,0,0,0,0,0],"id":38,"left_children":[1,3,5,7,9,11,13,-1,-1,-1,-1,-1,-1,-1,-1],"loss_changes":[1.3965594E11,2.3769651E10,4.583989E9,8.3378217E9,3.8791145E9,8.081654E8,1.1243438E9,0E0,0E0,0E0,0E0,0E0,0E0,0E0,0E0],"parents":[2147483647,0,0,1,1,2,2,3,3,4,4,5,5,6,6],"right_children":[2,4,6,8,10,12,14,-1,-1,-1,-1,-1,-1,-1,-1],"split_conditions":[7.427199E4,6.223309E4,9.323928E4,5.444936E4,6.836E4,8.1032E4,1.0122727E5,-7.8621313E2,-3.416514E2,-9.678617E1,1.5840399E2,4.6064618E2,8.260795E2,1.1113105E3,1.4866552E3],"split_indices":[6,6,176,6,13,8,13,0,0,0,0,0,0,0,0],"split_type":[0,0,0,0,0,0,0,0,0,0,0,0,0,0,0],"sum_hessian":[5.064E3,4.208E3,8.56E2,1.654E3,2.554E3,2.08E2,6.48E2,4.68E2,1.186E3,1.928E3,6.26E2,8.8E1,1.2E2,5.66E2,8.2E1],"tree_param":{"num_deleted":"0","num_feature":"252","num_nodes":"15","size_leaf_vector":"1"}},{"base_weights":[5.651672E1,-2.2400964E3,1.174775E4,-6.2712627E3,-8.764529E2,6.7513135E3,1.2823287E4,-9.606573E2,-4.5708292E2,-1.5709285E2,1.11945946E2,4.6489465E2,7.539044E2,9.8534265E2,1.2423E3],"categories":[],"categories_nodes":[],"categories_segments":[],"categories_sizes":[],"default_left":[0,0,0,0,0,0,0,0,0,0,0,0,0,0,0],"id":39,"left_children":[1,3,5,7,9,11,13,-1,-1,-1,-1,-1,-1,-1,-1],"loss_changes":[1.3752312E11,2.3527481E10,4.4378276E9,5.520679E9,6.0494254E9,3.542748E8,1.2179538E9,0E0,0E0,0E0,0E0,0E0,0E0,0E0,0E0],"parents":[2147483647,0,0,1,1,2,2,3,3,4,4,5,5,6,6],"right_children":[2,4,6,8,10,12,14,-1,-1,-1,-1,-1,-1,-1,-1],"split_conditions":[7.334924E4,5.967442E4,8.937292E4,4.8122754E4,6.750951E4,8.111653E4,9.648895E4,-9.606573E2,-4.5708292E2,-1.5709285E2,1.11945946E2,4.6489465E2,7.539044E2,9.8534265E2,1.2423E3],"split_indices":[15,6,82,65,13,9,6,0,0,0,0,0,0,0,0],"split_type":[0,0,0,0,0,0,0,0,0,0,0,0,0,0,0],"sum_hessian":[5.12E3,4.28E3,8.4E2,1.081E3,3.199E3,1.5E2,6.9E2,2.17E2,8.64E2,2.26E3,9.39E2,8.1E1,6.9E1,2.71E2,4.19E2],"tree_param":{"num_deleted":"0","num_feature":"252","num_nodes":"15","size_leaf_vector":"1"}},{"base_weights":[4.776037E0,-2.123091E3,1.056126E4,-4.9065327E3,-3.2843723E2,7.3067026E3,1.2118566E4,-7.401884E2,-3.1754852E2,-8.394861E1,1.4395735E2,4.413227E2,7.9037067E2,1.0381915E3,1.4117126E3],"categories":[],"categories_nodes":[],"categories_segments":[],"categories_sizes":[],"default_left":[0,0,0,0,0,0,0,0,0,0,0,0,0,0,0],"id":40,"left_children":[1,3,5,7,9,11,13,-1,-1,-1,-1,-1,-1,-1,-1],"loss_changes":[1.1608492E11,2.1483028E10,4.3108516E9,7.670493E9,3.1208236E9,9.992458E8,8.4914995E8,0E0,0E0,0E0,0E0,0E0,0E0,0E0,0E0],"parents":[2147483647,0,0,1,1,2,2,3,3,4,4,5,5,6,6],"right_children":[2,4,6,8,10,12,14,-1,-1,-1,-1,-1,-1,-1,-1],"split_conditions":[7.3025E4,6.223309E4,9.4244E4,5.39E4,6.844116E4,8.71E4,1.017598E5,-7.401884E2,-3.1754852E2,-8.394861E1,1.4395735E2,4.413227E2,7.9037067E2,1.0381915E3,1.4117126E3],"split_indices":[6,6,6,13,13,13,13,0,0,0,0,0,0,0,0],"split_type":[0,0,0,0,0,0,0,0,0,0,0,0,0,0,0],"sum_hessian":[5.166E3,4.3E3,8.66E2,1.685E3,2.615E3,2.82E2,5.84E2,4.76E2,1.209E3,1.988E3,6.27E2,1.14E2,1.68E2,5.22E2,6.2E1],"tree_param":{"num_deleted":"0","num_feature":"252","num_nodes":"15","size_leaf_vector":"1"}},{"base_weights":[2.4055655E1,-2.1267686E3,1.0738703E4,-6.487624E3,-1.0120425E3,6.7915527E3,1.1903789E4,-9.662286E2,-4.7862177E2,-1.8113628E2,5.3324856E1,4.297862E2,7.4496277E2,1.0191907E3,1.4427218E3],"categories":[],"categories_nodes":[],"categories_segments":[],"categories_sizes":[],"default_left":[0,0,0,0,0,0,0,0,0,0,0,0,0,0,0],"id":41,"left_children":[1,3,5,7,9,11,13,-1,-1,-1,-1,-1,-1,-1,-1],"loss_changes":[1.1840383E11,2.0794438E10,3.8741852E9,4.1820733E9,5.6026655E9,5.7304166E8,1.1536138E9,0E0,0E0,0E0,0E0,0E0,0E0,0E0,0E0],"parents":[2147483647,0,0,1,1,2,2,3,3,4,4,5,5,6,6],"right_children":[2,4,6,8,10,12,14,-1,-1,-1,-1,-1,-1,-1,-1],"split_conditions":[7.3025E4,5.852668E4,9.23E4,4.52487E4,6.68E4,8.176656E4,1.017598E5,-9.662286E2,-4.7862177E2,-1.8113628E2,5.3324856E1,4.297862E2,7.4496277E2,1.0191907E3,1.4427218E3],"split_indices":[6,6,6,175,6,2,13,0,0,0,0,0,0,0,0],"split_type":[0,0,0,0,0,0,0,0,0,0,0,0,0,0,0],"sum_hessian":[5.136E3,4.278E3,8.58E2,8.7E2,3.408E3,1.97E2,6.61E2,1.76E2,6.94E2,2.086E3,1.322E3,8.9E1,1.08E2,5.99E2,6.2E1],"tree_param":{"num_deleted":"0","num_feature":"252","num_nodes":"15","size_leaf_vector":"1"}},{"base_weights":[5.672279E1,-2.1207834E3,1.0672913E4,-6.101365E3,-8.7237476E2,7.648902E3,1.2204054E4,-9.156226E2,-4.34474E2,-1.6454398E2,7.298033E1,4.560878E2,8.071974E2,1.0444117E3,1.4200605E3],"categories":[],"categories_nodes":[],"categories_segments":[],"categories_sizes":[],"default_left":[0,0,0,0,0,0,0,0,0,0,0,0,0,0,0],"id":42,"left_children":[1,3,5,7,9,11,13,-1,-1,-1,-1,-1,-1,-1,-1],"loss_changes":[1.1856287E11,2.1144435E10,3.9542702E9,5.1514163E9,5.339437E9,1.0114294E9,8.709161E8,0E0,0E0,0E0,0E0,0E0,0E0,0E0,0E0],"parents":[2147483647,0,0,1,1,2,2,3,3,4,4,5,5,6,6],"right_children":[2,4,6,8,10,12,14,-1,-1,-1,-1,-1,-1,-1,-1],"split_conditions":[7.334924E4,5.895499E4,9.377137E4,4.847938E4,6.675E4,8.690922E4,1.017598E5,-9.156226E2,-4.34474E2,-1.6454398E2,7.298033E1,4.560878E2,8.071974E2,1.0444117E3,1.4200605E3],"split_indices":[15,13,13,180,13,42,13,0,0,0,0,0,0,0,0],"split_type":[0,0,0,0,0,0,0,0,0,0,0,0,0,0,0],"sum_hessian":[5.127E3,4.255E3,8.72E2,1.015E3,3.24E3,2.95E2,5.77E2,2.29E2,7.86E2,2.056E3,1.184E3,1.07E2,1.88E2,5.14E2,6.3E1],"tree_param":{"num_deleted":"0","num_feature":"252","num_nodes":"15","size_leaf_vector":"1"}},{"base_weights":[-7.39767E0,-2.114034E3,1.0561565E4,-8.1855903E3,-1.3249056E3,5.9563433E3,1.1638609E4,-9.408877E2,-5.9577203E2,-2.6798416E2,-8.9202E0,3.9683102E2,6.6534796E2,9.0797363E2,1.1448895E3],"categories":[],"categories_nodes":[],"categories_segments":[],"categories_sizes":[],"default_left":[0,0,0,0,0,0,0,0,0,0,0,0,0,0,0],"id":43,"left_children":[1,3,5,7,9,11,13,-1,-1,-1,-1,-1,-1,-1,-1],"loss_changes":[1.1239083E11,2.0155845E10,4.0960983E9,1.6562012E9,7.675614E9,3.340293E8,1.066582E9,0E0,0E0,0E0,0E0,0E0,0E0,0E0,0E0],"parents":[2147483647,0,0,1,1,2,2,3,3,4,4,5,5,6,6],"right_children":[2,4,6,8,10,12,14,-1,-1,-1,-1,-1,-1,-1,-1],"split_conditions":[7.3025E4,5.48074E4,8.934322E4,4.531835E4,6.36574E4,7.60134E4,9.695371E4,-9.408877E2,-5.9577203E2,-2.6798416E2,-8.9202E0,3.9683102E2,6.6534796E2,9.0797363E2,1.1448895E3],"split_indices":[6,6,78,4,6,182,6,0,0,0,0,0,0,0,0],"split_type":[0,0,0,0,0,0,0,0,0,0,0,0,0,0,0],"sum_hessian":[5.046E3,4.208E3,8.38E2,4.83E2,3.725E3,1.6E2,6.78E2,1.85E2,2.98E2,1.569E3,2.156E3,8.2E1,7.8E1,3.12E2,3.66E2],"tree_param":{"num_deleted":"0","num_feature":"252","num_nodes":"15","size_leaf_vector":"1"}},{"base_weights":[-4.561028E1,-1.9410978E3,9.658273E3,-4.4227134E3,-2.989161E2,6.3624487E3,1.0955625E4,-6.5871295E2,-2.8474164E2,-7.7530136E1,1.2006134E2,3.7083142E2,6.785712E2,9.3578546E2,1.3376991E3],"categories":[],"categories_nodes":[],"categories_segments":[],"categories_sizes":[],"default_left":[0,0,0,0,0,0,0,0,0,0,0,0,0,0,0],"id":44,"left_children":[1,3,5,7,9,11,13,-1,-1,-1,-1,-1,-1,-1,-1],"loss_changes":[9.3529465E10,1.733468E10,3.4875556E9,6.151377E9,2.4081293E9,6.2304154E8,9.5125504E8,0E0,0E0,0E0,0E0,0E0,0E0,0E0,0E0],"parents":[2147483647,0,0,1,1,2,2,3,3,4,4,5,5,6,6],"right_children":[2,4,6,8,10,12,14,-1,-1,-1,-1,-1,-1,-1,-1],"split_conditions":[7.2401E4,6.234749E4,9.205007E4,5.48074E4,6.823E4,8.224467E4,1.0265E5,-6.5871295E2,-2.8474164E2,-7.7530136E1,1.2006134E2,3.7083142E2,6.785712E2,9.3578546E2,1.3376991E3],"split_indices":[13,6,13,6,13,5,6,0,0,0,0,0,0,0,0],"split_type":[0,0,0,0,0,0,0,0,0,0,0,0,0,0,0],"sum_hessian":[5.083E3,4.253E3,8.3E2,1.693E3,2.56E3,2.36E2,5.94E2,4.94E2,1.199E3,1.901E3,6.59E2,8.7E1,1.49E2,5.37E2,5.7E1],"tree_param":{"num_deleted":"0","num_feature":"252","num_nodes":"15","size_leaf_vector":"1"}},{"base_weights":[-2.864295E1,-1.9781919E3,9.676066E3,-4.384779E3,-2.688984E2,5.846419E3,1.0817254E4,-6.65211E2,-2.806444E2,-6.6203026E1,1.4445137E2,4.112352E2,6.8032263E2,9.229853E2,1.2941642E3],"categories":[],"categories_nodes":[],"categories_segments":[],"categories_sizes":[],"default_left":[0,0,0,0,0,0,0,0,0,0,0,0,0,0,0],"id":45,"left_children":[1,3,5,7,9,11,13,-1,-1,-1,-1,-1,-1,-1,-1],"loss_changes":[9.601589E10,1.738256E10,3.6508058E9,6.6560655E9,2.2149455E9,4.0060928E8,9.737011E8,0E0,0E0,0E0,0E0,0E0,0E0,0E0,0E0],"parents":[2147483647,0,0,1,1,2,2,3,3,4,4,5,5,6,6],"right_children":[2,4,6,8,10,12,14,-1,-1,-1,-1,-1,-1,-1,-1],"split_conditions":[7.3025E4,6.254871E4,9.066043E4,5.48074E4,6.934279E4,8.7722984E4,1.017598E5,-6.65211E2,-2.806444E2,-6.6203026E1,1.4445137E2,4.112352E2,6.8032263E2,9.229853E2,1.2941642E3],"split_indices":[6,6,77,6,6,76,13,0,0,0,0,0,0,0,0],"split_type":[0,0,0,0,0,0,0,0,0,0,0,0,0,0,0],"sum_hessian":[5.073E3,4.225E3,8.48E2,1.754E3,2.471E3,1.96E2,6.52E2,5.01E2,1.253E3,1.976E3,4.95E2,1.18E2,7.8E1,5.83E2,6.9E1],"tree_param":{"num_deleted":"0","num_feature":"252","num_nodes":"15","size_leaf_vector":"1"}},{"base_weights":[5.1278126E1,-1.9850068E3,9.641255E3,-6.581564E3,-1.0833065E3,5.3555015E3,1.0644881E4,-8.4732227E2,-4.7501068E2,-2.0352414E2,1.727395E1,3.822371E2,6.1963824E2,8.352992E2,1.0693772E3],"categories":[],"categories_nodes":[],"categories_segments":[],"categories_sizes":[],"default_left":[0,0,0,0,0,0,0,0,0,0,0,0,0,0,0],"id":46,"left_children":[1,3,5,7,9,11,13,-1,-1,-1,-1,-1,-1,-1,-1],"loss_changes":[9.933579E10,1.7384284E10,3.7786747E9,2.4718807E9,5.379467E9,2.6321613E8,1.1365827E9,0E0,0E0,0E0,0E0,0E0,0E0,0E0,0E0],"parents":[2147483647,0,0,1,1,2,2,3,3,4,4,5,5,6,6],"right_children":[2,4,6,8,10,12,14,-1,-1,-1,-1,-1,-1,-1,-1],"split_conditions":[7.3E4,5.691601E4,9.059598E4,4.710544E4,6.454801E4,8.166873E4,9.69E4,-8.4732227E2,-4.7501068E2,-2.0352414E2,1.727395E1,3.822371E2,6.1963824E2,8.352992E2,1.0693772E3],"split_indices":[5,13,6,10,13,13,13,0,0,0,0,0,0,0,0],"split_type":[0,0,0,0,0,0,0,0,0,0,0,0,0,0,0],"sum_hessian":[5.085E3,4.195E3,8.9E2,6.87E2,3.508E3,1.7E2,7.2E2,2.04E2,4.83E2,1.808E3,1.7E3,1.04E2,6.6E1,3.75E2,3.45E2],"tree_param":{"num_deleted":"0","num_feature":"252","num_nodes":"15","size_leaf_vector":"1"}},{"base_weights":[-3.5515247E1,-1.9285411E3,9.831801E3,-6.2094404E3,-9.5886896E2,6.54194E3,1.0833632E4,-8.543489E2,-4.5936374E2,-1.6798415E2,6.89943E1,4.084817E2,6.8439746E2,9.28637E2,1.273665E3],"categories":[],"categories_nodes":[],"categories_segments":[],"categories_sizes":[],"default_left":[0,0,0,0,0,0,0,0,0,0,0,0,0,0,0],"id":47,"left_children":[1,3,5,7,9,11,13,-1,-1,-1,-1,-1,-1,-1,-1],"loss_changes":[9.572826E10,1.784375E10,2.6523894E9,2.7824927E9,5.6290816E9,4.0119245E8,7.63265E8,0E0,0E0,0E0,0E0,0E0,0E0,0E0,0E0],"parents":[2147483647,0,0,1,1,2,2,3,3,4,4,5,5,6,6],"right_children":[2,4,6,8,10,12,14,-1,-1,-1,-1,-1,-1,-1,-1],"split_conditions":[7.017879E4,5.761807E4,9.331977E4,4.540762E4,6.668233E4,8.176656E4,1.0071504E5,-8.543489E2,-4.5936374E2,-1.6798415E2,6.89943E1,4.084817E2,6.8439746E2,9.28637E2,1.273665E3],"split_indices":[89,13,179,6,11,2,187,0,0,0,0,0,0,0,0],"split_type":[0,0,0,0,0,0,0,0,0,0,0,0,0,0,0],"sum_hessian":[5.123E3,4.299E3,8.24E2,7.93E2,3.506E3,1.94E2,6.3E2,1.87E2,6.06E2,2.285E3,1.221E3,7.3E1,1.21E2,5.66E2,6.4E1],"tree_param":{"num_deleted":"0","num_feature":"252","num_nodes":"15","size_leaf_vector":"1"}},{"base_weights":[-4.7371235E1,-1.875457E3,8.51014E3,-6.3840483E3,-1.1093003E3,4.6302715E3,9.689409E3,-8.195312E2,-4.5469098E2,-2.3301558E2,-1.5769426E1,3.3398773E2,5.5923645E2,6.99216E2,9.3301184E2],"categories":[],"categories_nodes":[],"categories_segments":[],"categories_sizes":[],"default_left":[0,0,0,0,0,0,0,0,0,0,0,0,0,0,0],"id":48,"left_children":[1,3,5,7,9,11,13,-1,-1,-1,-1,-1,-1,-1,-1],"loss_changes":[7.93597E10,1.4432061E10,4.0434483E9,2.1439263E9,5.0152883E9,2.8272794E8,9.058058E8,0E0,0E0,0E0,0E0,0E0,0E0,0E0,0E0],"parents":[2147483647,0,0,1,1,2,2,3,3,4,4,5,5,6,6],"right_children":[2,4,6,8,10,12,14,-1,-1,-1,-1,-1,-1,-1,-1],"split_conditions":[7.175004E4,5.67E4,8.933309E4,4.52487E4,6.325482E4,8.166873E4,9.577776E4,-8.195312E2,-4.5469098E2,-2.3301558E2,-1.5769426E1,3.3398773E2,5.5923645E2,6.99216E2,9.3301184E2],"split_indices":[13,6,77,175,6,13,6,0,0,0,0,0,0,0,0],"split_type":[0,0,0,0,0,0,0,0,0,0,0,0,0,0,0],"sum_hessian":[5.071E3,4.179E3,8.92E2,6.06E2,3.573E3,2.09E2,6.83E2,1.88E2,4.18E2,1.366E3,2.207E3,1.38E2,7.1E1,2.06E2,4.77E2],"tree_param":{"num_deleted":"0","num_feature":"252","num_nodes":"15","size_leaf_vector":"1"}},{"base_weights":[1.656158E1,-1.7327925E3,8.859861E3,-4.9023433E3,-6.277138E2,6.5956323E3,1.0296852E4,-8.0105817E2,-3.531933E2,-1.2537323E2,7.162339E1,3.845811E2,6.819303E2,8.779491E2,1.2084858E3],"categories":[],"categories_nodes":[],"categories_segments":[],"categories_sizes":[],"default_left":[0,0,0,0,0,0,0,0,0,0,0,0,0,0,0],"id":49,"left_children":[1,3,5,7,9,11,13,-1,-1,-1,-1,-1,-1,-1,-1],"loss_changes":[7.849308E10,1.4833924E10,2.6626499E9,4.1690952E9,3.504517E9,7.5867546E8,6.1802906E8,0E0,0E0,0E0,0E0,0E0,0E0,0E0,0E0],"parents":[2147483647,0,0,1,1,2,2,3,3,4,4,5,5,6,6],"right_children":[2,4,6,8,10,12,14,-1,-1,-1,-1,-1,-1,-1,-1],"split_conditions":[7.408301E4,5.992413E4,9.499564E4,4.735298E4,6.740214E4,8.690922E4,1.017598E5,-8.0105817E2,-3.531933E2,-1.2537323E2,7.162339E1,3.845811E2,6.819303E2,8.779491E2,1.2084858E3],"split_indices":[5,6,34,5,6,42,12,0,0,0,0,0,0,0,0],"split_type":[0,0,0,0,0,0,0,0,0,0,0,0,0,0,0],"sum_hessian":[5.072E3,4.235E3,8.37E2,1.094E3,3.141E3,3.27E2,5.1E2,2.03E2,8.91E2,2.034E3,1.107E3,1.05E2,2.22E2,4.52E2,5.8E1],"tree_param":{"num_deleted":"0","num_feature":"252","num_nodes":"15","size_leaf_vector":"1"}},{"base_weights":[1.0374623E1,-1.8408318E3,8.60248E3,-4.3313486E3,-4.797435E2,4.3900635E3,9.635381E3,-7.059284E2,-3.102418E2,-8.786524E1,1.02424324E2,3.3236716E2,5.4567816E2,7.424404E2,9.657015E2],"categories":[],"categories_nodes":[],"categories_segments":[],"categories_sizes":[],"default_left":[0,0,0,0,0,0,0,0,0,0,0,0,0,0,0],"id":50,"left_children":[1,3,5,7,9,11,13,-1,-1,-1,-1,-1,-1,-1,-1],"loss_changes":[8.075152E10,1.4157092E10,3.8759465E9,4.4789125E9,2.2287972E9,1.8343731E8,1.0459341E9,0E0,0E0,0E0,0E0,0E0,0E0,0E0,0E0],"parents":[2147483647,0,0,1,1,2,2,3,3,4,4,5,5,6,6],"right_children":[2,4,6,8,10,12,14,-1,-1,-1,-1,-1,-1,-1,-1],"split_conditions":[7.175004E4,6.146315E4,8.835E4,5.115004E4,6.85E4,1.9668293E0,9.6404E4,-7.059284E2,-3.102418E2,-8.786524E1,1.02424324E2,3.3236716E2,5.4567816E2,7.424404E2,9.657015E2],"split_indices":[13,6,11,5,6,232,13,0,0,0,0,0,0,0,0],"split_type":[0,0,0,0,0,0,0,0,0,0,0,0,0,0,0],"sum_hessian":[5.075E3,4.176E3,8.99E2,1.475E3,2.701E3,1.78E2,7.21E2,2.81E2,1.194E3,2.061E3,6.4E2,1.31E2,4.7E1,3.49E2,3.72E2],"tree_param":{"num_deleted":"0","num_feature":"252","num_nodes":"15","size_leaf_vector":"1"}},{"base_weights":[1.0062318E1,-1.8576207E3,8.4886045E3,-6.357334E3,-1.095999E3,4.5650786E3,9.667462E3,-7.8129626E2,-4.6820767E2,-2.4581001E2,-2.4621618E1,3.1902963E2,5.525283E2,7.501798E2,9.632723E2],"categories":[],"categories_nodes":[],"categories_segments":[],"categories_sizes":[],"default_left":[0,0,0,0,0,0,0,0,0,0,0,0,0,0,0],"id":51,"left_children":[1,3,5,7,9,11,13,-1,-1,-1,-1,-1,-1,-1,-1],"loss_changes":[8.131189E10,1.44144E10,4.245926E9,1.576147E9,4.904099E9,3.2698726E8,9.300091E8,0E0,0E0,0E0,0E0,0E0,0E0,0E0,0E0],"parents":[2147483647,0,0,1,1,2,2,3,3,4,4,5,5,6,6],"right_children":[2,4,6,8,10,12,14,-1,-1,-1,-1,-1,-1,-1,-1],"split_conditions":[7.206E4,5.616E4,8.936989E4,4.5271016E4,6.266001E4,7.60134E4,9.721494E4,-7.8129626E2,-4.6820767E2,-2.4581001E2,-2.4621618E1,3.1902963E2,5.525283E2,7.501798E2,9.632723E2],"split_indices":[6,12,80,176,6,182,6,0,0,0,0,0,0,0,0],"split_type":[0,0,0,0,0,0,0,0,0,0,0,0,0,0,0],"sum_hessian":[5.133E3,4.207E3,9.26E2,6.08E2,3.599E3,2.15E2,7.11E2,1.89E2,4.19E2,1.188E3,2.411E3,1.36E2,7.9E1,3.43E2,3.68E2],"tree_param":{"num_deleted":"0","num_feature":"252","num_nodes":"15","size_leaf_vector":"1"}},{"base_weights":[-4.0290914E0,-1.6841844E3,7.6236577E3,-4.3755225E3,-6.518525E2,4.0426458E3,8.796456E3,-7.273415E2,-3.2142395E2,-1.25889725E2,4.002191E1,3.0439096E2,5.0641016E2,7.043503E2,9.2332166E2],"categories":[],"categories_nodes":[],"categories_segments":[],"categories_sizes":[],"default_left":[0,0,0,0,0,0,0,0,0,0,0,0,0,0,0],"id":52,"left_children":[1,3,5,7,9,11,13,-1,-1,-1,-1,-1,-1,-1,-1],"loss_changes":[6.5384133E10,1.1613452E10,3.8343885E9,3.3462129E9,2.5321395E9,2.172224E8,8.910971E8,0E0,0E0,0E0,0E0,0E0,0E0,0E0,0E0],"parents":[2147483647,0,0,1,1,2,2,3,3,4,4,5,5,6,6],"right_children":[2,4,6,8,10,12,14,-1,-1,-1,-1,-1,-1,-1,-1],"split_conditions":[7.1336E4,5.954257E4,8.933309E4,4.70611E4,6.68E4,8.1032E4,9.785E4,-7.273415E2,-3.2142395E2,-1.25889725E2,4.002191E1,3.0439096E2,5.0641016E2,7.043503E2,9.2332166E2],"split_indices":[13,13,77,8,6,8,13,0,0,0,0,0,0,0,0],"split_type":[0,0,0,0,0,0,0,0,0,0,0,0,0,0,0],"sum_hessian":[5.1E3,4.18E3,9.2E2,1.158E3,3.022E3,2.28E2,6.92E2,1.94E2,9.64E2,1.787E3,1.235E3,1.67E2,6.1E1,4.44E2,2.48E2],"tree_param":{"num_deleted":"0","num_feature":"252","num_nodes":"15","size_leaf_vector":"1"}},{"base_weights":[8.43359E0,-1.6716458E3,7.8375312E3,-6.0072964E3,-9.921736E2,4.1986816E3,8.849123E3,-7.442979E2,-4.3606732E2,-2.0799E2,-8.208307E0,3.183161E2,4.9974805E2,7.0579736E2,9.056112E2],"categories":[],"categories_nodes":[],"categories_segments":[],"categories_sizes":[],"default_left":[0,0,0,0,0,0,0,0,0,0,0,0,0,0,0],"id":53,"left_children":[1,3,5,7,9,11,13,-1,-1,-1,-1,-1,-1,-1,-1],"loss_changes":[6.78178E10,1.2499799E10,3.3183252E9,1.4635602E9,4.432457E9,1.5781402E8,7.931044E8,0E0,0E0,0E0,0E0,0E0,0E0,0E0,0E0],"parents":[2147483647,0,0,1,1,2,2,3,3,4,4,5,5,6,6],"right_children":[2,4,6,8,10,12,14,-1,-1,-1,-1,-1,-1,-1,-1],"split_conditions":[7.175004E4,5.5735E4,8.933309E4,4.529643E4,6.3299516E4,8.222213E4,9.759713E4,-7.442979E2,-4.3606732E2,-2.0799E2,-8.208307E0,3.183161E2,4.9974805E2,7.0579736E2,9.056112E2],"split_indices":[13,13,77,178,34,4,34,0,0,0,0,0,0,0,0],"split_type":[0,0,0,0,0,0,0,0,0,0,0,0,0,0,0],"sum_hessian":[5.154E3,4.244E3,9.1E2,5.74E2,3.67E3,1.99E2,7.11E2,1.83E2,3.91E2,1.473E3,2.197E3,1.4E2,5.9E1,4.2E2,2.91E2],"tree_param":{"num_deleted":"0","num_feature":"252","num_nodes":"15","size_leaf_vector":"1"}},{"base_weights":[2.5911033E0,-1.6990928E3,7.7608306E3,-6.0032593E3,-1.0302806E3,4.1955376E3,8.841554E3,-7.3115247E2,-4.2873694E2,-2.2343997E2,-2.0933228E1,3.0896567E2,5.248177E2,7.5590063E2,1.1175656E3],"categories":[],"categories_nodes":[],"categories_segments":[],"categories_sizes":[],"default_left":[0,0,0,0,0,0,0,0,0,0,0,0,0,0,0],"id":54,"left_children":[1,3,5,7,9,11,13,-1,-1,-1,-1,-1,-1,-1,-1],"loss_changes":[6.788341E10,1.2133406E10,3.5290604E9,1.4509097E9,4.288034E9,2.4854067E8,8.440996E8,0E0,0E0,0E0,0E0,0E0,0E0,0E0,0E0],"parents":[2147483647,0,0,1,1,2,2,3,3,4,4,5,5,6,6],"right_children":[2,4,6,8,10,12,14,-1,-1,-1,-1,-1,-1,-1,-1],"split_conditions":[7.206E4,5.5735E4,8.933309E4,4.52487E4,6.288186E4,8.222213E4,1.01718E5,-7.3115247E2,-4.2873694E2,-2.2343997E2,-2.0933228E1,3.0896567E2,5.248177E2,7.5590063E2,1.1175656E3],"split_indices":[6,13,77,175,6,4,76,0,0,0,0,0,0,0,0],"split_type":[0,0,0,0,0,0,0,0,0,0,0,0,0,0,0],"sum_hessian":[5.14E3,4.216E3,9.24E2,5.66E2,3.65E3,2.16E2,7.08E2,1.97E2,3.69E2,1.277E3,2.373E3,1.53E2,6.3E1,6.48E2,6E1],"tree_param":{"num_deleted":"0","num_feature":"252","num_nodes":"15","size_leaf_vector":"1"}},{"base_weights":[7.277047E1,-1.5430969E3,8.21683E3,-3.8668887E3,-2.871727E2,6.3055215E3,9.507136E3,-5.5774854E2,-2.4631062E2,-7.443766E1,1.3767181E2,3.5910205E2,6.3602893E2,8.087285E2,1.1080215E3],"categories":[],"categories_nodes":[],"categories_segments":[],"categories_sizes":[],"default_left":[0,0,0,0,0,0,0,0,0,0,0,0,0,0,0],"id":55,"left_children":[1,3,5,7,9,11,13,-1,-1,-1,-1,-1,-1,-1,-1],"loss_changes":[6.787577E10,1.256003E10,2.049704E9,3.9670129E9,2.8072502E9,6.292552E8,5.3733376E8,0E0,0E0,0E0,0E0,0E0,0E0,0E0,0E0],"parents":[2147483647,0,0,1,1,2,2,3,3,4,4,5,5,6,6],"right_children":[2,4,6,8,10,12,14,-1,-1,-1,-1,-1,-1,-1,-1],"split_conditions":[7.427199E4,6.163595E4,9.55E4,5.4987516E4,6.859558E4,8.692139E4,1.0071504E5,-5.5774854E2,-2.4631062E2,-7.443766E1,1.3767181E2,3.5910205E2,6.3602893E2,8.087285E2,1.1080215E3],"split_indices":[6,6,6,180,34,43,188,0,0,0,0,0,0,0,0],"split_type":[0,0,0,0,0,0,0,0,0,0,0,0,0,0,0],"sum_hessian":[5.156E3,4.303E3,8.53E2,1.509E3,2.794E3,3.46E2,5.07E2,4.75E2,1.034E3,2.151E3,6.43E2,9.4E1,2.52E2,4.45E2,6.2E1],"tree_param":{"num_deleted":"0","num_feature":"252","num_nodes":"15","size_leaf_vector":"1"}},{"base_weights":[-4.94974E1,-1.531667E3,6.894588E3,-4.7501377E3,-7.7422516E2,3.6192312E3,7.9862935E3,-6.8455023E2,-3.414658E2,-1.3583865E2,3.1254084E1,2.7279553E2,4.4815787E2,6.395837E2,8.275898E2],"categories":[],"categories_nodes":[],"categories_segments":[],"categories_sizes":[],"default_left":[0,0,0,0,0,0,0,0,0,0,0,0,0,0,0],"id":56,"left_children":[1,3,5,7,9,11,13,-1,-1,-1,-1,-1,-1,-1,-1],"loss_changes":[5.2716204E10,1.0286371E10,3.1943844E9,2.1371269E9,2.883919E9,1.6412877E8,6.478725E8,0E0,0E0,0E0,0E0,0E0,0E0,0E0,0E0],"parents":[2147483647,0,0,1,1,2,2,3,3,4,4,5,5,6,6],"right_children":[2,4,6,8,10,12,14,-1,-1,-1,-1,-1,-1,-1,-1],"split_conditions":[7.170341E4,5.761807E4,9.012399E4,4.527974E4,6.6052E4,8.172747E4,9.753318E4,-6.8455023E2,-3.414658E2,-1.3583865E2,3.1254084E1,2.7279553E2,4.4815787E2,6.395837E2,8.275898E2],"split_indices":[20,13,19,177,13,0,13,0,0,0,0,0,0,0,0],"split_type":[0,0,0,0,0,0,0,0,0,0,0,0,0,0,0],"sum_hessian":[5.12E3,4.22E3,9E2,8.03E2,3.417E3,2.26E2,6.74E2,1.9E2,6.13E2,2.05E3,1.367E3,1.64E2,6.2E1,4.19E2,2.55E2],"tree_param":{"num_deleted":"0","num_feature":"252","num_nodes":"15","size_leaf_vector":"1"}},{"base_weights":[8.041009E0,-1.5567069E3,7.008405E3,-5.6787344E3,-9.694496E2,3.5249094E3,7.919934E3,-6.8286383E2,-4.0977902E2,-2.0725793E2,-2.1463823E1,2.820889E2,4.390145E2,6.031015E2,7.874791E2],"categories":[],"categories_nodes":[],"categories_segments":[],"categories_sizes":[],"default_left":[0,0,0,0,0,0,0,0,0,0,0,0,0,0,0],"id":57,"left_children":[1,3,5,7,9,11,13,-1,-1,-1,-1,-1,-1,-1,-1],"loss_changes":[5.557821E10,1.0033286E10,2.917118E9,1.0750577E9,3.5870372E9,8.311808E7,7.188767E8,0E0,0E0,0E0,0E0,0E0,0E0,0E0,0E0],"parents":[2147483647,0,0,1,1,2,2,3,3,4,4,5,5,6,6],"right_children":[2,4,6,8,10,12,14,-1,-1,-1,-1,-1,-1,-1,-1],"split_conditions":[7.2E4,5.540085E4,8.887706E4,4.52414E4,6.288186E4,8.224467E4,9.59E4,-6.8286383E2,-4.0977902E2,-2.0725793E2,-2.1463823E1,2.820889E2,4.390145E2,6.031015E2,7.874791E2],"split_indices":[4,6,34,3,6,5,13,0,0,0,0,0,0,0,0],"split_type":[0,0,0,0,0,0,0,0,0,0,0,0,0,0,0],"sum_hessian":[5.072E3,4.146E3,9.26E2,5.16E2,3.63E3,1.93E2,7.33E2,1.8E2,3.36E2,1.268E3,2.362E3,1.56E2,3.7E1,3.28E2,4.05E2],"tree_param":{"num_deleted":"0","num_feature":"252","num_nodes":"15","size_leaf_vector":"1"}},{"base_weights":[-3.2872166E1,-1.5303597E3,7.002282E3,-3.4327278E3,-3.1606006E2,4.1556235E3,8.229682E3,-5.27887E2,-2.2766069E2,-7.472232E1,6.6809975E1,2.7803848E2,4.8729648E2,6.9963434E2,1.0314883E3],"categories":[],"categories_nodes":[],"categories_segments":[],"categories_sizes":[],"default_left":[0,0,0,0,0,0,0,0,0,0,0,0,0,0,0],"id":58,"left_children":[1,3,5,7,9,11,13,-1,-1,-1,-1,-1,-1,-1,-1],"loss_changes":[5.480223E10,9.906621E9,3.1577006E9,3.640572E9,1.4584753E9,3.603973E8,7.230546E8,0E0,0E0,0E0,0E0,0E0,0E0,0E0,0E0],"parents":[2147483647,0,0,1,1,2,2,3,3,4,4,5,5,6,6],"right_children":[2,4,6,8,10,12,14,-1,-1,-1,-1,-1,-1,-1,-1],"split_conditions":[7.170341E4,6.202035E4,9.3266484E4,5.24E4,6.750951E4,8.096675E4,1.0265E5,-5.27887E2,-2.2766069E2,-7.472232E1,6.6809975E1,2.7803848E2,4.8729648E2,6.9963434E2,1.0314883E3],"split_indices":[20,6,178,5,13,29,6,0,0,0,0,0,0,0,0],"split_type":[0,0,0,0,0,0,0,0,0,0,0,0,0,0,0],"sum_hessian":[5.2E3,4.288E3,9.12E2,1.67E3,2.618E3,2.76E2,6.36E2,4.34E2,1.236E3,1.757E3,8.61E2,1.56E2,1.2E2,5.74E2,6.2E1],"tree_param":{"num_deleted":"0","num_feature":"252","num_nodes":"15","size_leaf_vector":"1"}},{"base_weights":[-5.7612643E0,-1.545238E3,7.0893057E3,-3.7043188E3,-4.3738254E2,4.1033345E3,8.221338E3,-5.2143665E2,-2.39774E2,-7.756296E1,1.03747215E2,2.6526132E2,4.831103E2,6.939169E2,9.378225E2],"categories":[],"categories_nodes":[],"categories_segments":[],"categories_sizes":[],"default_left":[0,0,0,0,0,0,0,0,0,0,0,0,0,0,0],"id":59,"left_children":[1,3,5,7,9,11,13,-1,-1,-1,-1,-1,-1,-1,-1],"loss_changes":[5.617408E10,1.0106712E10,3.0677893E9,3.10383E9,1.9379428E9,3.618706E8,5.882675E8,0E0,0E0,0E0,0E0,0E0,0E0,0E0,0E0],"parents":[2147483647,0,0,1,1,2,2,3,3,4,4,5,5,6,6],"right_children":[2,4,6,8,10,12,14,-1,-1,-1,-1,-1,-1,-1,-1],"split_conditions":[7.170341E4,6.097696E4,9.125203E4,5.2636867E4,6.823E4,7.60134E4,9.91398E4,-5.2143665E2,-2.39774E2,-7.756296E1,1.03747215E2,2.6526132E2,4.831103E2,6.939169E2,9.378225E2],"split_indices":[20,19,20,181,13,182,182,0,0,0,0,0,0,0,0],"split_type":[0,0,0,0,0,0,0,0,0,0,0,0,0,0,0],"sum_hessian":[5.141E3,4.225E3,9.16E2,1.432E3,2.793E3,2.53E2,6.63E2,4.58E2,9.74E2,2.199E3,5.94E2,1.38E2,1.15E2,5.61E2,1.02E2],"tree_param":{"num_deleted":"0","num_feature":"252","num_nodes":"15","size_leaf_vector":"1"}},{"base_weights":[3.2036182E1,-1.347441E3,6.8036343E3,-3.1153875E3,-1.19679115E2,5.02896E3,7.9367593E3,-5.6837634E2,-2.2299834E2,-4.229747E1,1.476101E2,2.9300793E2,5.0671558E2,6.764331E2,1.0271415E3],"categories":[],"categories_nodes":[],"categories_segments":[],"categories_sizes":[],"default_left":[0,0,0,0,0,0,0,0,0,0,0,0,0,0,0],"id":60,"left_children":[1,3,5,7,9,11,13,-1,-1,-1,-1,-1,-1,-1,-1],"loss_changes":[4.7078662E10,9.087892E9,1.6777421E9,3.417684E9,1.5588078E9,3.6540006E8,5.638738E8,0E0,0E0,0E0,0E0,0E0,0E0,0E0,0E0],"parents":[2147483647,0,0,1,1,2,2,3,3,4,4,5,5,6,6],"right_children":[2,4,6,8,10,12,14,-1,-1,-1,-1,-1,-1,-1,-1],"split_conditions":[7.427199E4,6.254871E4,9.55E4,5.016057E4,6.961665E4,8.71E4,1.0421608E5,-5.6837634E2,-2.2299834E2,-4.229747E1,1.476101E2,2.9300793E2,5.0671558E2,6.764331E2,1.0271415E3],"split_indices":[6,6,6,6,6,13,34,0,0,0,0,0,0,0,0],"split_type":[0,0,0,0,0,0,0,0,0,0,0,0,0,0,0],"sum_hessian":[5.038E3,4.186E3,8.52E2,1.715E3,2.471E3,3.34E2,5.18E2,2.7E2,1.445E3,2.06E3,4.11E2,9.3E1,2.41E2,4.75E2,4.3E1],"tree_param":{"num_deleted":"0","num_feature":"252","num_nodes":"15","size_leaf_vector":"1"}},{"base_weights":[-1.1568868E1,-1.4029579E3,6.379711E3,-3.9659724E3,-6.190612E2,3.7997632E3,7.470722E3,-6.03373E2,-2.8993677E2,-1.11902916E2,4.2993298E1,2.5424228E2,4.5259967E2,6.4294104E2,1.01288666E3],"categories":[],"categories_nodes":[],"categories_segments":[],"categories_sizes":[],"default_left":[0,0,0,0,0,0,0,0,0,0,0,0,0,0,0],"id":61,"left_children":[1,3,5,7,9,11,13,-1,-1,-1,-1,-1,-1,-1,-1],"loss_changes":[4.5360906E10,8.4138516E9,2.540241E9,1.9399096E9,2.2504182E9,3.1690573E8,5.626921E8,0E0,0E0,0E0,0E0,0E0,0E0,0E0,0E0],"parents":[2147483647,0,0,1,1,2,2,3,3,4,4,5,5,6,6],"right_children":[2,4,6,8,10,12,14,-1,-1,-1,-1,-1,-1,-1,-1],"split_conditions":[7.1336E4,5.917935E4,9.323928E4,4.718002E4,6.662868E4,8.144001E4,1.03333E5,-6.03373E2,-2.8993677E2,-1.11902916E2,4.2993298E1,2.5424228E2,4.5259967E2,6.4294104E2,1.01288666E3],"split_indices":[13,6,176,15,13,16,12,0,0,0,0,0,0,0,0],"split_type":[0,0,0,0,0,0,0,0,0,0,0,0,0,0,0],"sum_hessian":[5.099E3,4.188E3,9.11E2,9.8E2,3.208E3,2.72E2,6.39E2,1.97E2,7.83E2,2.033E3,1.175E3,1.58E2,1.14E2,6.02E2,3.7E1],"tree_param":{"num_deleted":"0","num_feature":"252","num_nodes":"15","size_leaf_vector":"1"}},{"base_weights":[3.083983E1,-1.3821543E3,6.4124517E3,-4.3430273E3,-7.0494525E2,4.470324E3,7.8824487E3,-6.189462E2,-3.134705E2,-1.3926788E2,1.5783522E1,2.5781302E2,4.8204932E2,6.698668E2,9.290616E2],"categories":[],"categories_nodes":[],"categories_segments":[],"categories_sizes":[],"default_left":[0,0,0,0,0,0,0,0,0,0,0,0,0,0,0],"id":62,"left_children":[1,3,5,7,9,11,13,-1,-1,-1,-1,-1,-1,-1,-1],"loss_changes":[4.615769E10,8.4005023E9,2.6161234E9,1.6527483E9,2.5814764E9,5.803786E8,4.170875E8,0E0,0E0,0E0,0E0,0E0,0E0,0E0,0E0],"parents":[2147483647,0,0,1,1,2,2,3,3,4,4,5,5,6,6],"right_children":[2,4,6,8,10,12,14,-1,-1,-1,-1,-1,-1,-1,-1],"split_conditions":[7.175004E4,5.761807E4,9.499564E4,4.540762E4,6.506666E4,7.859498E4,1.01718E5,-6.189462E2,-3.134705E2,-1.3926788E2,1.5783522E1,2.5781302E2,4.8204932E2,6.698668E2,9.290616E2],"split_indices":[13,13,34,6,6,182,76,0,0,0,0,0,0,0,0],"split_type":[0,0,0,0,0,0,0,0,0,0,0,0,0,0,0],"sum_hessian":[5.117E3,4.19E3,9.27E2,7.79E2,3.411E3,4.01E2,5.26E2,1.86E2,5.93E2,1.729E3,1.682E3,1.51E2,2.5E2,4.63E2,6.3E1],"tree_param":{"num_deleted":"0","num_feature":"252","num_nodes":"15","size_leaf_vector":"1"}},{"base_weights":[-8.508229E0,-1.410171E3,6.428482E3,-4.166238E3,-7.283495E2,3.4006592E3,7.3513413E3,-5.8593317E2,-2.941057E2,-1.3072806E2,2.2853214E1,2.4664969E2,4.0616217E2,5.3508136E2,7.1454205E2],"categories":[],"categories_nodes":[],"categories_segments":[],"categories_sizes":[],"default_left":[0,0,0,0,0,0,0,0,0,0,0,0,0,0,0],"id":63,"left_children":[1,3,5,7,9,11,13,-1,-1,-1,-1,-1,-1,-1,-1],"loss_changes":[4.626625E10,7.9101174E9,2.5387008E9,1.7213911E9,2.4561518E9,1.463017E8,5.848801E8,0E0,0E0,0E0,0E0,0E0,0E0,0E0,0E0],"parents":[2147483647,0,0,1,1,2,2,3,3,4,4,5,5,6,6],"right_children":[2,4,6,8,10,12,14,-1,-1,-1,-1,-1,-1,-1,-1],"split_conditions":[7.206E4,5.83976E4,8.9370734E4,4.8488523E4,6.607498E4,7.60134E4,9.5725836E4,-5.8593317E2,-2.941057E2,-1.3072806E2,2.2853214E1,2.4664969E2,4.0616217E2,5.3508136E2,7.1454205E2],"split_indices":[6,6,81,181,6,182,41,0,0,0,0,0,0,0,0],"split_type":[0,0,0,0,0,0,0,0,0,0,0,0,0,0,0],"sum_hessian":[5.126E3,4.21E3,9.16E2,8.34E2,3.376E3,2.15E2,7.01E2,2.19E2,6.15E2,1.929E3,1.447E3,1.41E2,7.4E1,2.35E2,4.66E2],"tree_param":{"num_deleted":"0","num_feature":"252","num_nodes":"15","size_leaf_vector":"1"}},{"base_weights":[4.2081295E1,-1.2813488E3,5.768097E3,-4.8027305E3,-8.000631E2,2.7062136E3,6.6149E3,-5.7379205E2,-3.435103E2,-1.6659143E2,-1.2419756E1,2.219251E2,3.1214838E2,5.605899E2,8.9130054E2],"categories":[],"categories_nodes":[],"categories_segments":[],"categories_sizes":[],"default_left":[0,0,0,0,0,0,0,0,0,0,0,0,0,0,0],"id":64,"left_children":[1,3,5,7,9,11,13,-1,-1,-1,-1,-1,-1,-1,-1],"loss_changes":[3.9192207E10,7.1161047E9,2.5006612E9,7.599063E8,2.6112835E9,2.8285952E7,7.76831E8,0E0,0E0,0E0,0E0,0E0,0E0,0E0,0E0],"parents":[2147483647,0,0,1,1,2,2,3,3,4,4,5,5,6,6],"right_children":[2,4,6,8,10,12,14,-1,-1,-1,-1,-1,-1,-1,-1],"split_conditions":[7.109E4,5.468236E4,8.7722984E4,4.495E4,6.288333E4,7.60134E4,1.0265E5,-5.7379205E2,-3.435103E2,-1.6659143E2,-1.2419756E1,2.219251E2,3.1214838E2,5.605899E2,8.9130054E2],"split_indices":[13,13,76,12,20,182,5,0,0,0,0,0,0,0,0],"split_type":[0,0,0,0,0,0,0,0,0,0,0,0,0,0,0],"sum_hessian":[5.17E3,4.2E3,9.7E2,5.04E2,3.696E3,2.11E2,7.59E2,1.83E2,3.21E2,1.411E3,2.285E3,1.69E2,4.2E1,6.95E2,6.4E1],"tree_param":{"num_deleted":"0","num_feature":"252","num_nodes":"15","size_leaf_vector":"1"}},{"base_weights":[-6.701797E0,-1.3206425E3,5.637954E3,-4.738206E3,-8.411053E2,3.0173237E3,6.702016E3,-5.8056104E2,-3.492302E2,-1.6312848E2,-1.15796E1,2.2961656E2,3.8894745E2,5.7060565E2,8.580875E2],"categories":[],"categories_nodes":[],"categories_segments":[],"categories_sizes":[],"default_left":[0,0,0,0,0,0,0,0,0,0,0,0,0,0,0],"id":65,"left_children":[1,3,5,7,9,11,13,-1,-1,-1,-1,-1,-1,-1,-1],"loss_changes":[3.798025E10,6.803935E9,2.6773422E9,7.198331E8,2.5634363E9,1.562857E8,5.4434E8,0E0,0E0,0E0,0E0,0E0,0E0,0E0,0E0],"parents":[2147483647,0,0,1,1,2,2,3,3,4,4,5,5,6,6],"right_children":[2,4,6,8,10,12,14,-1,-1,-1,-1,-1,-1,-1,-1],"split_conditions":[7.08E4,5.468236E4,8.933309E4,4.333635E4,6.3506E4,8.143117E4,1.020187E5,-5.8056104E2,-3.492302E2,-1.6312848E2,-1.15796E1,2.2961656E2,3.8894745E2,5.7060565E2,8.580875E2],"split_indices":[13,13,77,11,6,15,47,0,0,0,0,0,0,0,0],"split_type":[0,0,0,0,0,0,0,0,0,0,0,0,0,0,0],"sum_hessian":[5.119E3,4.153E3,9.66E2,5.1E2,3.643E3,2.8E2,6.86E2,1.59E2,3.51E2,1.523E3,2.12E3,2.13E2,6.7E1,6.25E2,6.1E1],"tree_param":{"num_deleted":"0","num_feature":"252","num_nodes":"15","size_leaf_vector":"1"}},{"base_weights":[-2.2803926E0,-1.2887155E3,5.735378E3,-3.1421404E3,-3.9452652E2,2.8118542E3,6.573435E3,-5.484906E2,-2.3236607E2,-8.422755E1,3.8795914E1,2.2031021E2,3.365329E2,5.367487E2,7.411146E2],"categories":[],"categories_nodes":[],"categories_segments":[],"categories_sizes":[],"default_left":[0,0,0,0,0,0,0,0,0,0,0,0,0,0,0],"id":66,"left_children":[1,3,5,7,9,11,13,-1,-1,-1,-1,-1,-1,-1,-1],"loss_changes":[3.7679743E10,6.9097257E9,2.2733292E9,2.1712323E9,1.2859514E9,6.003904E7,6.49728E8,0E0,0E0,0E0,0E0,0E0,0E0,0E0,0E0],"parents":[2147483647,0,0,1,1,2,2,3,3,4,4,5,5,6,6],"right_children":[2,4,6,8,10,12,14,-1,-1,-1,-1,-1,-1,-1,-1],"split_conditions":[7.109E4,6.088403E4,8.968365E4,4.735348E4,6.669343E4,7.7498E4,9.9424E4,-5.484906E2,-2.3236607E2,-8.422755E1,3.8795914E1,2.2031021E2,3.365329E2,5.367487E2,7.411146E2],"split_indices":[13,34,6,6,13,3,4,0,0,0,0,0,0,0,0],"split_type":[0,0,0,0,0,0,0,0,0,0,0,0,0,0,0],"sum_hessian":[5.103E3,4.169E3,9.34E2,1.356E3,2.813E3,2.09E2,7.25E2,2.03E2,1.153E3,1.691E3,1.122E3,1.57E2,5.2E1,5.54E2,1.71E2],"tree_param":{"num_deleted":"0","num_feature":"252","num_nodes":"15","size_leaf_vector":"1"}},{"base_weights":[4.209055E1,-1.3156537E3,5.6494976E3,-4.8358325E3,-8.205817E2,2.7499365E3,6.543926E3,-5.788385E2,-3.476671E2,-1.8178885E2,-1.866463E1,2.2804971E2,3.8062308E2,4.7958807E2,6.4598785E2],"categories":[],"categories_nodes":[],"categories_segments":[],"categories_sizes":[],"default_left":[0,0,0,0,0,0,0,0,0,0,0,0,0,0,0],"id":67,"left_children":[1,3,5,7,9,11,13,-1,-1,-1,-1,-1,-1,-1,-1],"loss_changes":[3.881974E10,7.150122E9,2.5608397E9,7.608914E8,2.6819123E9,5.832397E7,5.849313E8,0E0,0E0,0E0,0E0,0E0,0E0,0E0,0E0],"parents":[2147483647,0,0,1,1,2,2,3,3,4,4,5,5,6,6],"right_children":[2,4,6,8,10,12,14,-1,-1,-1,-1,-1,-1,-1,-1],"split_conditions":[7.126547E4,5.48074E4,8.690922E4,4.294202E4,6.254871E4,2.1244104E0,9.598262E4,-5.788385E2,-3.476671E2,-1.8178885E2,-1.866463E1,2.2804971E2,3.8062308E2,4.7958807E2,6.4598785E2],"split_indices":[6,6,42,84,6,234,6,0,0,0,0,0,0,0,0],"split_type":[0,0,0,0,0,0,0,0,0,0,0,0,0,0,0],"sum_hessian":[5.097E3,4.104E3,9.93E2,5.05E2,3.599E3,2.35E2,7.58E2,1.8E2,3.25E2,1.201E3,2.398E3,2.11E2,2.4E1,2.89E2,4.69E2],"tree_param":{"num_deleted":"0","num_feature":"252","num_nodes":"15","size_leaf_vector":"1"}},{"base_weights":[-9.542018E0,-1.2293433E3,5.046089E3,-4.1898887E3,-7.4092145E2,3.2067021E3,6.45306E3,-5.3689996E2,-3.0743585E2,-1.3401341E2,-5.5820465E0,2.0938278E2,3.9672354E2,5.521384E2,8.487916E2],"categories":[],"categories_nodes":[],"categories_segments":[],"categories_sizes":[],"default_left":[0,0,0,0,0,0,0,0,0,0,0,0,0,0,0],"id":68,"left_children":[1,3,5,7,9,11,13,-1,-1,-1,-1,-1,-1,-1,-1],"loss_changes":[3.1629122E10,5.9718467E9,2.5606205E9,7.748618E8,1.8355206E9,4.5325466E8,3.9114138E8,0E0,0E0,0E0,0E0,0E0,0E0,0E0,0E0],"parents":[2147483647,0,0,1,1,2,2,3,3,4,4,5,5,6,6],"right_children":[2,4,6,8,10,12,14,-1,-1,-1,-1,-1,-1,-1,-1],"split_conditions":[7.113922E4,5.61616E4,9.377137E4,4.3186016E4,6.416E4,8.489963E4,1.03333E5,-5.3689996E2,-3.0743585E2,-1.3401341E2,-5.5820465E0,2.0938278E2,3.9672354E2,5.521384E2,8.487916E2],"split_indices":[6,13,11,68,6,186,13,0,0,0,0,0,0,0,0],"split_type":[0,0,0,0,0,0,0,0,0,0,0,0,0,0,0],"sum_hessian":[5.127E3,4.131E3,9.96E2,5.84E2,3.547E3,4.33E2,5.63E2,1.66E2,4.18E2,1.669E3,1.878E3,2.58E2,1.75E2,5.22E2,4.1E1],"tree_param":{"num_deleted":"0","num_feature":"252","num_nodes":"15","size_leaf_vector":"1"}},{"base_weights":[-4.3106834E1,-1.2300891E3,5.1541523E3,-4.388462E3,-7.6316895E2,3.1524663E3,6.292718E3,-5.3040936E2,-3.225846E2,-1.4096738E2,-1.2778088E0,2.0738695E2,3.8045013E2,5.3013684E2,7.6458636E2],"categories":[],"categories_nodes":[],"categories_segments":[],"categories_sizes":[],"default_left":[0,0,0,0,0,0,0,0,0,0,0,0,0,0,0],"id":69,"left_children":[1,3,5,7,9,11,13,-1,-1,-1,-1,-1,-1,-1,-1],"loss_changes":[3.1486255E10,6.124177E9,2.1440614E9,6.226729E8,2.2194322E9,3.0947302E8,4.2759782E8,0E0,0E0,0E0,0E0,0E0,0E0,0E0,0E0],"parents":[2147483647,0,0,1,1,2,2,3,3,4,4,5,5,6,6],"right_children":[2,4,6,8,10,12,14,-1,-1,-1,-1,-1,-1,-1,-1],"split_conditions":[7.090385E4,5.540085E4,9.195856E4,4.367E4,6.416E4,8.184671E4,1.0122727E5,-5.3040936E2,-3.225846E2,-1.4096738E2,-1.2778088E0,2.0738695E2,3.8045013E2,5.3013684E2,7.6458636E2],"split_indices":[13,6,8,6,6,3,13,0,0,0,0,0,0,0,0],"split_type":[0,0,0,0,0,0,0,0,0,0,0,0,0,0,0],"sum_hessian":[5.102E3,4.154E3,9.48E2,5.34E2,3.62E3,3.45E2,6.03E2,1.74E2,3.6E2,1.729E3,1.891E3,2E2,1.45E2,5.27E2,7.6E1],"tree_param":{"num_deleted":"0","num_feature":"252","num_nodes":"15","size_leaf_vector":"1"}},{"base_weights":[5.7118042E1,-1.2231003E3,4.999464E3,-4.3668394E3,-7.806933E2,2.330745E3,6.0154946E3,-5.277059E2,-3.1967685E2,-1.5623123E2,-2.1881723E1,-2.1155989E1,2.1428877E2,4.3799393E2,6.0900256E2],"categories":[],"categories_nodes":[],"categories_segments":[],"categories_sizes":[],"default_left":[0,0,0,0,0,0,0,0,0,0,0,0,0,0,0],"id":70,"left_children":[1,3,5,7,9,11,13,-1,-1,-1,-1,-1,-1,-1,-1],"loss_changes":[3.2166926E10,5.6128154E9,2.8229018E9,5.836708E8,1.8420836E9,5.538381E7,6.500147E8,0E0,0E0,0E0,0E0,0E0,0E0,0E0,0E0],"parents":[2147483647,0,0,1,1,2,2,3,3,4,4,5,5,6,6],"right_children":[2,4,6,8,10,12,14,-1,-1,-1,-1,-1,-1,-1,-1],"split_conditions":[7.1E4,5.468236E4,8.743432E4,4.367E4,6.2302E4,-2.7823425E2,9.648895E4,-5.277059E2,-3.1967685E2,-1.5623123E2,-2.1881723E1,-2.1155989E1,2.1428877E2,4.3799393E2,6.0900256E2],"split_indices":[6,13,35,6,13,99,6,0,0,0,0,0,0,0,0],"split_type":[0,0,0,0,0,0,0,0,0,0,0,0,0,0,0],"sum_hessian":[5.082E3,4.037E3,1.045E3,4.97E2,3.54E3,2.89E2,7.56E2,1.64E2,3.33E2,1.256E3,2.284E3,8E0,2.81E2,3.25E2,4.31E2],"tree_param":{"num_deleted":"0","num_feature":"252","num_nodes":"15","size_leaf_vector":"1"}},{"base_weights":[-6.2835226E0,-1.1864873E3,5.155532E3,-3.337382E3,-5.3758453E2,2.548476E3,5.923285E3,-5.181511E2,-2.4353157E2,-8.957444E1,4.5234165E1,1.7948645E2,2.7039148E2,5.0322766E2,7.967169E2],"categories":[],"categories_nodes":[],"categories_segments":[],"categories_sizes":[],"default_left":[0,0,0,0,0,0,0,0,0,0,0,0,0,0,0],"id":71,"left_children":[1,3,5,7,9,11,13,-1,-1,-1,-1,-1,-1,-1,-1],"loss_changes":[3.1555805E10,5.882592E9,1.9152282E9,1.4484716E9,1.5834285E9,5.159744E7,5.7388646E8,0E0,0E0,0E0,0E0,0E0,0E0,0E0,0E0],"parents":[2147483647,0,0,1,1,2,2,3,3,4,4,5,5,6,6],"right_children":[2,4,6,8,10,12,14,-1,-1,-1,-1,-1,-1,-1,-1],"split_conditions":[7.090385E4,5.917935E4,8.693161E4,4.5297184E4,6.7468E4,2.477065E2,1.0071504E5,-5.181511E2,-2.4353157E2,-8.957444E1,4.5234165E1,1.7948645E2,2.7039148E2,5.0322766E2,7.967169E2],"split_indices":[13,6,44,179,6,216,183,0,0,0,0,0,0,0,0],"split_type":[0,0,0,0,0,0,0,0,0,0,0,0,0,0,0],"sum_hessian":[5.178E3,4.215E3,9.63E2,9.76E2,3.239E3,2.2E2,7.43E2,1.9E2,7.86E2,2.238E3,1.001E3,1.07E2,1.13E2,6.83E2,6E1],"tree_param":{"num_deleted":"0","num_feature":"252","num_nodes":"15","size_leaf_vector":"1"}},{"base_weights":[-1.8377146E1,-1.1608713E3,4.5789756E3,-3.9270525E3,-7.413666E2,2.7033398E3,5.730422E3,-4.772824E2,-2.852595E2,-1.4422859E2,-1.9611362E1,1.8337288E2,3.375771E2,4.891457E2,7.9237396E2],"categories":[],"categories_nodes":[],"categories_segments":[],"categories_sizes":[],"default_left":[0,0,0,0,0,0,0,0,0,0,0,0,0,0,0],"id":72,"left_children":[1,3,5,7,9,11,13,-1,-1,-1,-1,-1,-1,-1,-1],"loss_changes":[2.665034E10,4.713168E9,2.166618E9,5.388457E8,1.6134257E9,2.6297267E8,4.321833E8,0E0,0E0,0E0,0E0,0E0,0E0,0E0,0E0],"parents":[2147483647,0,0,1,1,2,2,3,3,4,4,5,5,6,6],"right_children":[2,4,6,8,10,12,14,-1,-1,-1,-1,-1,-1,-1,-1],"split_conditions":[7.052197E4,5.540085E4,9.205007E4,4.531835E4,6.239124E4,8.222213E4,1.03333E5,-4.772824E2,-2.852595E2,-1.4422859E2,-1.9611362E1,1.8337288E2,3.375771E2,4.891457E2,7.9237396E2],"split_indices":[13,6,13,4,13,4,13,0,0,0,0,0,0,0,0],"split_type":[0,0,0,0,0,0,0,0,0,0,0,0,0,0,0],"sum_hessian":[5.072E3,4.063E3,1.009E3,5.34E2,3.529E3,3.85E2,6.24E2,1.78E2,3.56E2,1.315E3,2.214E3,2.43E2,1.42E2,5.82E2,4.2E1],"tree_param":{"num_deleted":"0","num_feature":"252","num_nodes":"15","size_leaf_vector":"1"}},{"base_weights":[-3.74565E1,-1.1455653E3,4.5255283E3,-2.6532107E3,-3.6794412E2,2.2166902E3,5.4403843E3,-4.2299933E2,-1.853792E2,-6.830354E1,2.5625843E1,1.8172774E2,2.5269319E2,3.985234E2,5.501499E2],"categories":[],"categories_nodes":[],"categories_segments":[],"categories_sizes":[],"default_left":[0,0,0,0,0,0,0,0,0,0,0,0,0,0,0],"id":73,"left_children":[1,3,5,7,9,11,13,-1,-1,-1,-1,-1,-1,-1,-1],"loss_changes":[2.5746092E10,4.80224E9,2.0902441E9,1.6630098E9,7.0640525E8,2.5775616E7,4.793303E8,0E0,0E0,0E0,0E0,0E0,0E0,0E0,0E0],"parents":[2147483647,0,0,1,1,2,2,3,3,4,4,5,5,6,6],"right_children":[2,4,6,8,10,12,14,-1,-1,-1,-1,-1,-1,-1,-1],"split_conditions":[7.1E4,6.110874E4,8.71E4,5.139634E4,6.675E4,7.649577E4,9.5674E4,-4.2299933E2,-1.853792E2,-6.830354E1,2.5625843E1,1.8172774E2,2.5269319E2,3.985234E2,5.501499E2],"split_indices":[6,6,13,6,13,5,13,0,0,0,0,0,0,0,0],"split_type":[0,0,0,0,0,0,0,0,0,0,0,0,0,0,0],"sum_hessian":[5.09E3,4.096E3,9.94E2,1.393E3,2.703E3,2.83E2,7.11E2,2.98E2,1.095E3,1.681E3,1.022E3,2.23E2,6E1,3.09E2,4.02E2],"tree_param":{"num_deleted":"0","num_feature":"252","num_nodes":"15","size_leaf_vector":"1"}},{"base_weights":[2.6821283E1,-1.1489054E3,4.404872E3,-3.7399556E3,-7.155335E2,2.067876E3,5.4514863E3,-4.8599313E2,-2.77861E2,-1.2799972E2,-1.4104389E1,1.748408E2,2.6332E2,3.9513626E2,5.476989E2],"categories":[],"categories_nodes":[],"categories_segments":[],"categories_sizes":[],"default_left":[0,0,0,0,0,0,0,0,0,0,0,0,0,0,0],"id":74,"left_children":[1,3,5,7,9,11,13,-1,-1,-1,-1,-1,-1,-1,-1],"loss_changes":[2.6209804E10,4.5046917E9,2.6259825E9,5.9690394E8,1.3813184E9,2.6067712E7,4.999045E8,0E0,0E0,0E0,0E0,0E0,0E0,0E0,0E0],"parents":[2147483647,0,0,1,1,2,2,3,3,4,4,5,5,6,6],"right_children":[2,4,6,8,10,12,14,-1,-1,-1,-1,-1,-1,-1,-1],"split_conditions":[7.055623E4,5.615563E4,8.708242E4,4.3622E4,6.371998E4,7.60134E4,9.542026E4,-4.8599313E2,-2.77861E2,-1.2799972E2,-1.4104389E1,1.748408E2,2.6332E2,3.9513626E2,5.476989E2],"split_indices":[6,11,12,5,5,182,13,0,0,0,0,0,0,0,0],"split_type":[0,0,0,0,0,0,0,0,0,0,0,0,0,0,0],"sum_hessian":[5.09E3,4.013E3,1.077E3,5.74E2,3.439E3,3.34E2,7.43E2,1.51E2,4.23E2,1.499E3,1.94E3,3.01E2,3.3E1,3.04E2,4.39E2],"tree_param":{"num_deleted":"0","num_feature":"252","num_nodes":"15","size_leaf_vector":"1"}},{"base_weights":[-5.347223E0,-1.1119868E3,4.545124E3,-3.7547344E3,-6.745108E2,2.1820122E3,5.4362695E3,-4.8125867E2,-2.7447107E2,-1.2074542E2,2.6766157E0,1.6102045E2,2.3799648E2,4.596918E2,7.4853467E2],"categories":[],"categories_nodes":[],"categories_segments":[],"categories_sizes":[],"default_left":[0,0,0,0,0,0,0,0,0,0,0,0,0,0,0],"id":75,"left_children":[1,3,5,7,9,11,13,-1,-1,-1,-1,-1,-1,-1,-1],"loss_changes":[2.5792416E10,4.760842E9,2.0988252E9,6.340229E8,1.6948205E9,4.605069E7,5.587886E8,0E0,0E0,0E0,0E0,0E0,0E0,0E0,0E0],"parents":[2147483647,0,0,1,1,2,2,3,3,4,4,5,5,6,6],"right_children":[2,4,6,8,10,12,14,-1,-1,-1,-1,-1,-1,-1,-1],"split_conditions":[7.089419E4,5.7694992E4,8.7004E4,4.294202E4,6.42804E4,1.5136559E0,1.01718E5,-4.8125867E2,-2.7447107E2,-1.2074542E2,2.6766157E0,1.6102045E2,2.3799648E2,4.596918E2,7.4853467E2],"split_indices":[20,181,7,84,83,237,76,0,0,0,0,0,0,0,0],"split_type":[0,0,0,0,0,0,0,0,0,0,0,0,0,0,0],"sum_hessian":[5.12E3,4.119E3,1.001E3,5.84E2,3.535E3,2.75E2,7.26E2,1.68E2,4.16E2,1.798E3,1.737E3,1.58E2,1.17E2,6.66E2,6E1],"tree_param":{"num_deleted":"0","num_feature":"252","num_nodes":"15","size_leaf_vector":"1"}},{"base_weights":[-5.418283E0,-1.0143438E3,4.2138364E3,-3.6489065E3,-6.3423987E2,2.8176533E3,5.4818228E3,-4.4404843E2,-2.66607E2,-9.164921E1,3.6327606E1,1.770069E2,3.330788E2,4.587284E2,6.5258844E2],"categories":[],"categories_nodes":[],"categories_segments":[],"categories_sizes":[],"default_left":[0,0,0,0,0,0,0,0,0,0,0,0,0,0,0],"id":76,"left_children":[1,3,5,7,9,11,13,-1,-1,-1,-1,-1,-1,-1,-1],"loss_changes":[2.1969424E10,4.168629E9,1.7486541E9,4.462428E8,1.4953423E9,3.5699686E8,2.8554138E8,0E0,0E0,0E0,0E0,0E0,0E0,0E0,0E0],"parents":[2147483647,0,0,1,1,2,2,3,3,4,4,5,5,6,6],"right_children":[2,4,6,8,10,12,14,-1,-1,-1,-1,-1,-1,-1,-1],"split_conditions":[7.08E4,5.468236E4,9.5164E4,4.36118E4,6.734903E4,8.71E4,1.0122727E5,-4.4404843E2,-2.66607E2,-9.164921E1,3.6327606E1,1.770069E2,3.330788E2,4.587284E2,6.5258844E2],"split_indices":[13,13,6,4,6,13,13,0,0,0,0,0,0,0,0],"split_type":[0,0,0,0,0,0,0,0,0,0,0,0,0,0,0],"sum_hessian":[5.159E3,4.164E3,9.95E2,5.24E2,3.64E3,4.75E2,5.2E2,1.71E2,3.53E2,2.641E3,9.99E2,2.51E2,2.24E2,4.43E2,7.7E1],"tree_param":{"num_deleted":"0","num_feature":"252","num_nodes":"15","size_leaf_vector":"1"}},{"base_weights":[-3.268849E1,-1.0566549E3,3.9461035E3,-3.5815164E3,-6.5995435E2,2.092369E3,4.9178115E3,-4.4716312E2,-2.6003098E2,-1.2935574E2,-1.611298E1,1.6676836E2,2.841516E2,4.1153738E2,6.143153E2],"categories":[],"categories_nodes":[],"categories_segments":[],"categories_sizes":[],"default_left":[0,0,0,0,0,0,0,0,0,0,0,0,0,0,0],"id":77,"left_children":[1,3,5,7,9,11,13,-1,-1,-1,-1,-1,-1,-1,-1],"loss_changes":[2.0679967E10,4.041235E9,1.8617723E9,5.085568E8,1.3232797E9,8.139904E7,3.7386035E8,0E0,0E0,0E0,0E0,0E0,0E0,0E0,0E0],"parents":[2147483647,0,0,1,1,2,2,3,3,4,4,5,5,6,6],"right_children":[2,4,6,8,10,12,14,-1,-1,-1,-1,-1,-1,-1,-1],"split_conditions":[7.0175E4,5.735456E4,9.059598E4,4.3622E4,6.2602E4,8.173E4,1.0062941E5,-4.4716312E2,-2.6003098E2,-1.2935574E2,-1.611298E1,1.6676836E2,2.841516E2,4.1153738E2,6.143153E2],"split_indices":[13,179,6,5,13,1,13,0,0,0,0,0,0,0,0],"split_type":[0,0,0,0,0,0,0,0,0,0,0,0,0,0,0],"sum_hessian":[5.074E3,4.036E3,1.038E3,5.47E2,3.489E3,3.58E2,6.8E2,1.71E2,3.76E2,1.315E3,2.174E3,3E2,5.8E1,5.93E2,8.7E1],"tree_param":{"num_deleted":"0","num_feature":"252","num_nodes":"15","size_leaf_vector":"1"}},{"base_weights":[-1.6191309E1,-1.0383004E3,4.174359E3,-3.379031E3,-6.224345E2,2.8407852E3,5.4893906E3,-4.326679E2,-2.4435898E2,-9.209024E1,1.9255842E1,1.6931412E2,3.3150903E2,4.6538138E2,7.454051E2],"categories":[],"categories_nodes":[],"categories_segments":[],"categories_sizes":[],"default_left":[0,0,0,0,0,0,0,0,0,0,0,0,0,0,0],"id":78,"left_children":[1,3,5,7,9,11,13,-1,-1,-1,-1,-1,-1,-1,-1],"loss_changes":[2.1689643E10,3.9607997E9,1.726675E9,5.648179E8,1.1914657E9,4.0270003E8,3.428219E8,0E0,0E0,0E0,0E0,0E0,0E0,0E0,0E0],"parents":[2147483647,0,0,1,1,2,2,3,3,4,4,5,5,6,6],"right_children":[2,4,6,8,10,12,14,-1,-1,-1,-1,-1,-1,-1,-1],"split_conditions":[7.1E4,5.654247E4,9.5164E4,4.52487E4,6.638E4,8.184671E4,1.0421608E5,-4.326679E2,-2.4435898E2,-9.209024E1,1.9255842E1,1.6931412E2,3.3150903E2,4.6538138E2,7.454051E2],"split_indices":[6,13,6,175,13,3,34,0,0,0,0,0,0,0,0],"split_type":[0,0,0,0,0,0,0,0,0,0,0,0,0,0,0],"sum_hessian":[5.062E3,4.07E3,9.92E2,6.13E2,3.457E3,4.94E2,4.98E2,1.83E2,4.3E2,2.32E3,1.137E3,2.4E2,2.54E2,4.58E2,4E1],"tree_param":{"num_deleted":"0","num_feature":"252","num_nodes":"15","size_leaf_vector":"1"}},{"base_weights":[-6.9795775E0,-1.1219592E3,3.9117117E3,-3.592986E3,-7.5274615E2,1.862959E3,5.022204E3,-4.4066583E2,-2.648405E2,-1.3953998E2,-2.4577028E1,1.5259767E2,2.6629205E2,3.9220914E2,5.431876E2],"categories":[],"categories_nodes":[],"categories_segments":[],"categories_sizes":[],"default_left":[0,0,0,0,0,0,0,0,0,0,0,0,0,0,0],"id":79,"left_children":[1,3,5,7,9,11,13,-1,-1,-1,-1,-1,-1,-1,-1],"loss_changes":[2.1854523E10,3.55004E9,2.511917E9,4.110761E8,1.3136956E9,6.149696E7,4.533842E8,0E0,0E0,0E0,0E0,0E0,0E0,0E0,0E0],"parents":[2147483647,0,0,1,1,2,2,3,3,4,4,5,5,6,6],"right_children":[2,4,6,8,10,12,14,-1,-1,-1,-1,-1,-1,-1,-1],"split_conditions":[6.962197E4,5.429989E4,8.690922E4,4.367E4,6.273784E4,7.7498E4,9.731678E4,-4.4066583E2,-2.648405E2,-1.3953998E2,-2.4577028E1,1.5259767E2,2.6629205E2,3.9220914E2,5.431876E2],"split_indices":[13,13,42,6,6,3,13,0,0,0,0,0,0,0,0],"split_type":[0,0,0,0,0,0,0,0,0,0,0,0,0,0,0],"sum_hessian":[5E3,3.893E3,1.107E3,5.05E2,3.388E3,3.9E2,7.17E2,1.57E2,3.48E2,1.252E3,2.136E3,3.46E2,4.4E1,4.57E2,2.6E2],"tree_param":{"num_deleted":"0","num_feature":"252","num_nodes":"15","size_leaf_vector":"1"}},{"base_weights":[-1.391506E1,-9.666544E2,3.6612344E3,-2.6357166E3,-4.623922E2,2.2944487E3,4.913459E3,-3.855823E2,-1.9286353E2,-7.562981E1,1.0917366E1,1.4506639E2,2.8186987E2,4.180584E2,6.654069E2],"categories":[],"categories_nodes":[],"categories_segments":[],"categories_sizes":[],"default_left":[0,0,0,0,0,0,0,0,0,0,0,0,0,0,0],"id":80,"left_children":[1,3,5,7,9,11,13,-1,-1,-1,-1,-1,-1,-1,-1],"loss_changes":[1.8112655E10,3.4562813E9,1.8120847E9,7.51189E8,7.1298336E8,2.909499E8,2.8256973E8,0E0,0E0,0E0,0E0,0E0,0E0,0E0,0E0],"parents":[2147483647,0,0,1,1,2,2,3,3,4,4,5,5,6,6],"right_children":[2,4,6,8,10,12,14,-1,-1,-1,-1,-1,-1,-1,-1],"split_conditions":[7.0175E4,5.8516E4,9.377137E4,4.735348E4,6.644999E4,7.924997E4,1.03333E5,-3.855823E2,-1.9286353E2,-7.562981E1,1.0917366E1,1.4506639E2,2.8186987E2,4.180584E2,6.654069E2],"split_indices":[13,13,13,6,6,6,13,0,0,0,0,0,0,0,0],"split_type":[0,0,0,0,0,0,0,0,0,0,0,0,0,0,0],"sum_hessian":[5.171E3,4.107E3,1.064E3,9.52E2,3.155E3,5.1E2,5.54E2,2.06E2,7.46E2,1.9E3,1.255E3,2.9E2,2.2E2,5.12E2,4.2E1],"tree_param":{"num_deleted":"0","num_feature":"252","num_nodes":"15","size_leaf_vector":"1"}},{"base_weights":[1.12468815E1,-9.629522E2,3.6800295E3,-3.2937888E3,-6.181552E2,1.8034794E3,4.605608E3,-4.084911E2,-2.4168465E2,-1.2314222E2,-1.797908E1,1.4587111E2,2.3067113E2,3.611629E2,5.0182632E2],"categories":[],"categories_nodes":[],"categories_segments":[],"categories_sizes":[],"default_left":[0,0,0,0,0,0,0,0,0,0,0,0,0,0,0],"id":81,"left_children":[1,3,5,7,9,11,13,-1,-1,-1,-1,-1,-1,-1,-1],"loss_changes":[1.8327644E10,3.2544916E9,1.8609961E9,3.8008166E8,1.122434E9,4.273088E7,3.8685696E8,0E0,0E0,0E0,0E0,0E0,0E0,0E0,0E0],"parents":[2147483647,0,0,1,1,2,2,3,3,4,4,5,5,6,6],"right_children":[2,4,6,8,10,12,14,-1,-1,-1,-1,-1,-1,-1,-1],"split_conditions":[7.072776E4,5.467749E4,8.968365E4,4.3358312E4,6.273784E4,7.924997E4,9.85231E4,-4.084911E2,-2.4168465E2,-1.2314222E2,-1.797908E1,1.4587111E2,2.3067113E2,3.611629E2,5.0182632E2],"split_indices":[6,12,6,41,6,6,6,0,0,0,0,0,0,0,0],"split_type":[0,0,0,0,0,0,0,0,0,0,0,0,0,0,0],"sum_hessian":[5.126E3,4.051E3,1.075E3,5.21E2,3.53E3,3.56E2,7.19E2,1.6E2,3.61E2,1.245E3,2.285E3,2.96E2,6E1,4.7E2,2.49E2],"tree_param":{"num_deleted":"0","num_feature":"252","num_nodes":"15","size_leaf_vector":"1"}},{"base_weights":[-9.950216E0,-9.104623E2,3.8373823E3,-2.5397903E3,-4.3759668E2,2.3970696E3,4.8879956E3,-3.7232205E2,-1.8522528E2,-6.884835E1,3.0810387E1,1.4798402E2,2.8155524E2,4.1220792E2,6.2820795E2],"categories":[],"categories_nodes":[],"categories_segments":[],"categories_sizes":[],"default_left":[0,0,0,0,0,0,0,0,0,0,0,0,0,0,0],"id":82,"left_children":[1,3,5,7,9,11,13,-1,-1,-1,-1,-1,-1,-1,-1],"loss_changes":[1.7717408E10,3.1916675E9,1.456726E9,6.962391E8,8.431174E8,2.2576947E8,2.8743475E8,0E0,0E0,0E0,0E0,0E0,0E0,0E0,0E0],"parents":[2147483647,0,0,1,1,2,2,3,3,4,4,5,5,6,6],"right_children":[2,4,6,8,10,12,14,-1,-1,-1,-1,-1,-1,-1,-1],"split_conditions":[7.089373E4,5.8652E4,9.4244E4,4.6959574E4,6.7468E4,7.924997E4,1.0071504E5,-3.7232205E2,-1.8522528E2,-6.884835E1,3.0810387E1,1.4798402E2,2.8155524E2,4.1220792E2,6.2820795E2],"split_indices":[19,13,6,182,6,6,183,0,0,0,0,0,0,0,0],"split_type":[0,0,0,0,0,0,0,0,0,0,0,0,0,0,0],"sum_hessian":[5.112E3,4.143E3,9.69E2,9.31E2,3.212E3,4.1E2,5.59E2,2.03E2,7.28E2,2.25E3,9.62E2,2.1E2,2E2,5.01E2,5.8E1],"tree_param":{"num_deleted":"0","num_feature":"252","num_nodes":"15","size_leaf_vector":"1"}},{"base_weights":[-2.5365528E1,-9.7894934E2,3.7240576E3,-2.0794392E3,-2.41929E2,2.1476091E3,4.6669155E3,-3.49955E2,-1.4852339E2,-4.4650135E1,5.3467026E1,1.488112E2,2.6679727E2,3.9823038E2,5.937174E2],"categories":[],"categories_nodes":[],"categories_segments":[],"categories_sizes":[],"default_left":[0,0,0,0,0,0,0,0,0,0,0,0,0,0,0],"id":83,"left_children":[1,3,5,7,9,11,13,-1,-1,-1,-1,-1,-1,-1,-1],"loss_changes":[1.8337796E10,3.315998E9,1.5363226E9,1.2447944E9,5.3459584E8,1.5335552E8,2.2956749E8,0E0,0E0,0E0,0E0,0E0,0E0,0E0,0E0],"parents":[2147483647,0,0,1,1,2,2,3,3,4,4,5,5,6,6],"right_children":[2,4,6,8,10,12,14,-1,-1,-1,-1,-1,-1,-1,-1],"split_conditions":[7.08836E4,6.15871E4,9.33266E4,5.132961E4,6.7787E4,7.719999E4,1.0071504E5,-3.49955E2,-1.4852339E2,-4.4650135E1,5.3467026E1,1.488112E2,2.6679727E2,3.9823038E2,5.937174E2],"split_indices":[6,13,180,1,13,1,188,0,0,0,0,0,0,0,0],"split_type":[0,0,0,0,0,0,0,0,0,0,0,0,0,0,0],"sum_hessian":[5.127E3,4.088E3,1.039E3,1.639E3,2.449E3,3.9E2,6.49E2,2.98E2,1.341E3,1.873E3,5.76E2,2.51E2,1.39E2,5.93E2,5.6E1],"tree_param":{"num_deleted":"0","num_feature":"252","num_nodes":"15","size_leaf_vector":"1"}},{"base_weights":[3.61045E0,-8.795716E2,3.3994382E3,-2.09129E3,-2.8242856E2,2.0871956E3,4.454129E3,-3.0258823E2,-1.3986775E2,-4.9694286E1,3.1909939E1,1.3422186E2,2.6156274E2,3.7413965E2,5.920224E2],"categories":[],"categories_nodes":[],"categories_segments":[],"categories_sizes":[],"default_left":[0,0,0,0,0,0,0,0,0,0,0,0,0,0,0],"id":84,"left_children":[1,3,5,7,9,11,13,-1,-1,-1,-1,-1,-1,-1,-1],"loss_changes":[1.5169243E10,2.9038077E9,1.4360955E9,8.9663795E8,4.7424278E8,2.2587814E8,2.978048E8,0E0,0E0,0E0,0E0,0E0,0E0,0E0,0E0],"parents":[2147483647,0,0,1,1,2,2,3,3,4,4,5,5,6,6],"right_children":[2,4,6,8,10,12,14,-1,-1,-1,-1,-1,-1,-1,-1],"split_conditions":[7.072776E4,6.061E4,9.3779336E4,5.179543E4,6.77E4,8.172747E4,1.020187E5,-3.0258823E2,-1.3986775E2,-4.9694286E1,3.1909939E1,1.3422186E2,2.6156274E2,3.7413965E2,5.920224E2],"split_indices":[6,12,29,34,6,0,48,0,0,0,0,0,0,0,0],"split_type":[0,0,0,0,0,0,0,0,0,0,0,0,0,0,0],"sum_hessian":[5.056E3,4.013E3,1.043E3,1.324E3,2.689E3,4.66E2,5.77E2,3.77E2,9.47E2,1.881E3,8.08E2,2.78E2,1.88E2,5.19E2,5.8E1],"tree_param":{"num_deleted":"0","num_feature":"252","num_nodes":"15","size_leaf_vector":"1"}},{"base_weights":[-6.4765277E0,-9.442614E2,3.2580757E3,-2.824454E3,-5.784754E2,1.8058328E3,4.3577144E3,-3.633631E2,-2.0533241E2,-1.09856445E2,-2.179666E1,1.303785E2,2.3124564E2,3.6877945E2,6.298043E2],"categories":[],"categories_nodes":[],"categories_segments":[],"categories_sizes":[],"default_left":[0,0,0,0,0,0,0,0,0,0,0,0,0,0,0],"id":85,"left_children":[1,3,5,7,9,11,13,-1,-1,-1,-1,-1,-1,-1,-1],"loss_changes":[1.5515054E10,2.7060884E9,1.798657E9,4.091054E8,7.198629E8,1.2870438E8,3.554857E8,0E0,0E0,0E0,0E0,0E0,0E0,0E0,0E0],"parents":[2147483647,0,0,1,1,2,2,3,3,4,4,5,5,6,6],"right_children":[2,4,6,8,10,12,14,-1,-1,-1,-1,-1,-1,-1,-1],"split_conditions":[7.0156E4,5.654247E4,9.323928E4,4.540762E4,6.2108E4,7.914894E4,1.03333E5,-3.633631E2,-2.0533241E2,-1.09856445E2,-2.179666E1,1.303785E2,2.3124564E2,3.6877945E2,6.298043E2],"split_indices":[6,13,176,6,13,5,13,0,0,0,0,0,0,0,0],"split_type":[0,0,0,0,0,0,0,0,0,0,0,0,0,0,0],"sum_hessian":[5.066E3,3.936E3,1.13E3,6.4E2,3.296E3,4.88E2,6.42E2,1.86E2,4.54E2,1.113E3,2.183E3,3.42E2,1.46E2,5.96E2,4.6E1],"tree_param":{"num_deleted":"0","num_feature":"252","num_nodes":"15","size_leaf_vector":"1"}},{"base_weights":[1.8082867E1,-9.2246246E2,3.1149824E3,-3.0177522E3,-6.091898E2,1.5691096E3,4.13655E3,-3.7126642E2,-2.23072E2,-1.1445722E2,